tree
version=v4
num_class=1
num_tree_per_iteration=1
label_index=0
max_feature_idx=18
objective=quantile
feature_names=Column_0 Column_1 Column_2 Column_3 Column_4 Column_5 Column_6 Column_7 Column_8 Column_9 Column_10 Column_11 Column_12 Column_13 Column_14 Column_15 Column_16 Column_17 Column_18
feature_infos=[0:1] [0:1] [0:1] [0:1] [0:1] [0:1] none [0:4.5747109785033828] [0:3.4276511643387346] [-3.8093432641639255:4.910554659934812] [0:3.044522437723423] [-1.5179056242877229:3.8108240637892443] [0:9.1397032923767423] [0:13.542107388361565] [0:3567.14794921875] [0:53.013511657714844] [-0.87538599967956543:0.90886813402175903] [-0.87429600954055786:1.0541083812713623] [-0.87447202205657959:0.90886819362640381]
tree_sizes=2741 2899 2875 2886 2908 2892 2899 2955 2914 2923 2909 2906 2935 2916 2927 2923 2929 2918 2924 2925 2929 2917 2924 2918 2918 2918 2936 2918 2944 2914 2933 2934 2920 2938 2934 2931 2941 2927 2938 2929 2937 2947 2914 2914 2945 2934 2949 2943 2922 2939 2921 2948 2929 2943 2942 2937 2934 2949 2926 2936 2947 2928 2917 2928 2930 2948 2932 2925 2913 2924 2938 2922 2950 2912 2905 2930 2927 2939 2961 2943 2942 2956 2922 2936 2968 2945 2936 2978 2935 2952 2920 2941 2968 2967 2930 2958 2960 2949 2939 2961 2936 2925 2952 2946 2947 2927 2943 2973 2938 2930 2933 2944 2951 2961 2941 2971 2946 2952 2921 2983 2925 2949 2940 2942 2952 2923 2928 2964 2965 2963 2973 2964 2961 2914 2925 2932 2927 2929 2926 2954 2942 2944 2959 2912 2973 2937 2925 2916 2908 2946 2964 2936 2956 2948 2939 2947 2904 2921 2952 2906 2940 2935 2937 2934 2951 2952 2962 2941 2938 2953 2937 2970 2937 2950 2968 2971 2921 2909 2920 2953 2933 2943 2921 2957 2975 2953 2928 2910 2974 2903 2948 2981 2973 2910 2949 2946 2950 2954 2907 2944 2920 2963 2935 2926 2942 2916 2940 2909 2957 2960 2924 2914 2939 2931 2970 2908 2945 2924 2927 2964 2921 2926 2936 2963 2889 2930 2950 2949 2904 2942 2937 2914 2923 2937 2912 2930 2955 2909 2927 2957 2940 2954 2911 2955 2933 2955 2943 2899 2957 2953 2930 2917 2938 2919 2949 2916 2973 2931 2971 2938 2943 2988 2930 2964 2934 2929 2926 2939 2936 2910 2931 2907 2922 2920 2944 2977 2958 2925 2943 2958 2914 2942 2950 2939 2935 2919 2903 2946 2916 2900 2913 2949 2928 2898 2925 2935 2931 2910 2902 2908 2928 2934 2958 2954 2946 2953 2924 2920 2965 2981 2970 2931 2966 2926 2915 2923 2893 2939 2953 2994 2945 2913 2900 2952 2951 2972 2971 2906 2924 2936 2911 2938 2911 2874 2907 2923 2912 2925 2895 2914 2921 2937 2936 2913 2930 2905 2910 2939 2915 2948 2896 2949 2918 2889 2954 2930 2923 2938 2943 2930 2937 2922 2928 2895 2877 2972 2876 2905 2930 2912 2916 2950 2961 2921 2932 2899 2944 2974 2944 2922 2943 2937 2932 2952 2933 2968 2952 2955 2946 2905 2900 2925 2940 2926 2917 2929 2940 2936 2929 2915 2926 2901 2923 2922 2922 2953 2936 2886 2928 2915 2903 2902 2913 2913 2916 2886 2924 2942 2919 2934 2890 2922 2942 2896 2950 2945 2931 2925 2955 2897 2933 2897 2911 2900 2906 2909 2930 2950 2917 2935 2937 2935 2910 2915 2917 2882 2890 2894 2918 2954 2890 2906 2958 2928 2930 2953 2911 2895 2905 2945 2918 2945 2916 2905 2928 2916 2957 2959 2911 2936 2913 2939 2943 2947 2958 2903 2909 2924 2926 2936 2880 2917 2937 2942 2941 2963 2949 2909 2963 2927 2950 2914 2933 2887 2917 2946 2953 2953 2913 2919 2956 2917 2944 2970 2967 2921 2942 2956 2960 2918 2937 2954 2951 2950 2954 2970 2981 2968 2989 2940 2925 2917 2973 2955 2937 2943 2976 2958 2927 2926 2934 2934 2961 2900 2933 2927 2880 2968 2930 2946 2939 2962 2941 2899 2886 2916 2920 2916 2933 2944 2934 2948 2968 2916 2955 2933 2911 2960 2991 2934 2966 2894 2927 2918 2952 2970 2944 2961 2941 2952 2949 2934 2956 2911 2917 2919 2911 2896 2911 2918 2932 2930 2896 2885 2928 2948 2916 2932 2927 2901 2873 2907 2938 2925 2935 2931 2959 2933 2911 2913 2931 2903 2914 2901 2915 2924 2887 2942 2932 2902 2945 2941 2941 2959 2937 2894 2889 2948 2926 2951 2917 2932 2918 2902 2959 2896 2930 2942 2928 2942 2947 2926 2923 2946 2932 2951 2924 2943 2951 2917 2903 2913 2952 2891 2922 2930 2938 2917 2926 2946 2923 2933 2938 2916 2926 2907 2876 2912 2904 2927 2903 2937 2918 2935 2918 2970 2938 2931 2953 2926 2925 2948 2897 2949 2885 2930 2897 2924 2944 2923 2955 2948 2933 2940 2981 2924 2942 2937 2931 2893 2943 2924 2916 2922 2893 2921 2926 2955 2902 2924 2945 2921 2919 2922 2939 2930 2922 2922 2952 2923 2910 2919 2938 2937 2942 2922 2900 2952 2922 2912 2900 2932 2873 2905 2933 2922 2929 2922 2932 2929 2911 2905 2913 2897 2933 2930 2937 2952 2913 2925 2918 2918 2913 2906 2930 2928 2925 2938 2916 2889 2899 2920 2904 2909 2920 2907 2928 2915 2933 2932 2931 2886 2922 2909 2908 2893 2909 2909 2835 2913 2889 2915 2909 2912 2907 2897 2920 2926 2911 2923 2870 2969 2923 2952 2912 2913 2926 2895 2923 2934 2915 2939 2939 2940 2961 2930 2927 2941 2946 2939

Tree=0
num_leaves=31
num_cat=0
split_feature=14 14 14 2 18 14 16 9 14 14 16 14 5 5 17 17 16 17 4 14 5 17 9 14 14 16 5 5 14 17
split_gain=3159.17 220.188 64.3923 63.483 48.5216 30.1888 36.6967 25.9843 23.3552 22.5952 19.6006 16.4592 16.2421 21.7961 37.2724 19.465 10.0039 8.06305 8.11857 8.32629 8.31642 7.59991 6.33015 6.36069 5.84121 5.69006 5.57199 5.13091 4.64536 5.45456
threshold=35.372339248657234 67.243526458740249 31.378952026367191 1.0000000180025095e-35 0.32484143972396856 44.772325515747077 0.23862275481224063 -0.87709776376364113 41.92280578613282 50.102111816406257 0.094480991363525405 37.402458190917976 0.97269774436296863 0.97462426843663152 0.44589388370513922 0.41019046306610113 0.12047365307807924 0.2735604196786881 1.0000000180025095e-35 33.093719482421882 0.99460500222779957 0.39038683474063879 -2.055555488192002 49.426378250122077 58.333751678466804 0.74922111630439769 0.99475610649175106 0.99666940594572517 30.855633735656742 0.63032621145248424
decision_type=2 2 2 2 2 2 2 2 2 2 2 2 2 2 2 2 2 2 2 2 2 2 2 2 2 2 2 2 2 2
left_child=2 3 28 7 5 6 11 9 16 -2 -10 -5 -3 14 15 -14 -9 -4 20 -20 -19 -6 -23 -24 -11 -12 -21 -18 -1 -30
right_child=1 12 17 4 21 -7 -8 8 10 24 25 -13 13 -15 -16 -17 27 18 19 26 -22 22 23 -25 -26 -27 -28 -29 29 -31
leaf_value=41.695006179809567 41.770071983337402 42.411312675476076 41.870424079895017 41.920528030395509 41.878522682189939 42.202399826049806 42.046970367431641 41.867800903320315 42.251166152954099 41.913557815551755 42.04469451904297 42.012854194641115 42.004907035827635 42.316921234130859 42.26558704376221 41.901010322570798 41.960439682006836 41.913034248352048 41.931662940979002 41.932043838500974 41.910212707519534 41.947875308990476 41.997319984436032 42.173307609558108 42.027077102661131 41.944413375854495 41.975396919250485 42.013609695434567 41.96091709136963 41.961973381042483
leaf_weight=7625 237 4165 468 101 65 1229 413 131 273 160 2234 240 101 4185 166 110 888 288 610 356 503 216 553 227 181 121 195 296 661 186
leaf_count=7625 237 4165 468 101 65 1229 413 131 273 160 2234 240 101 4185 166 110 888 288 610 356 503 216 553 227 181 121 195 296 661 186
internal_value=41.9648 41.9787 41.9439 41.9725 41.9781 41.9827 41.9748 41.9687 41.9702 41.9588 41.9729 41.9627 41.9841 41.9821 41.9706 41.9566 41.9647 41.9511 41.9525 41.9552 41.9486 41.9694 41.9705 41.9726 41.9671 41.9714 41.9597 41.9662 41.9419 41.9454
internal_weight=27184 16292 10892 7565 3044 1983 754 4521 3943 578 2628 341 8727 4562 377 211 1315 2420 1952 1161 791 1061 996 780 341 2355 551 1184 8472 847
internal_count=27184 16292 10892 7565 3044 1983 754 4521 3943 578 2628 341 8727 4562 377 211 1315 2420 1952 1161 791 1061 996 780 341 2355 551 1184 8472 847
is_linear=0
shrinkage=1


Tree=1
num_leaves=31
num_cat=0
split_feature=15 15 18 15 15 15 15 2 2 18 15 15 18 17 15 5 17 15 17 15 17 17 18 9 15 11 15 15 9 8
split_gain=3227.87 290.675 69.347 67.2834 75.7729 38.2315 30.6799 27.1878 24.2018 23.8638 19.2696 16.8454 12.6402 11.9875 11.218 9.27948 8.18905 7.91639 7.90884 7.54877 7.26269 7.12459 6.69218 6.57975 6.74472 6.27612 5.90864 5.76929 8.83666 5.61302
threshold=7.3843076229095468 6.183216094970704 0.21438923478126529 14.48017740249634 7.7326354980468759 4.7158002853393564 26.218253135681156 1.0000000180025095e-35 1.0000000180025095e-35 0.49829725921154028 6.8887839317321786 7.7320506572723398 0.32484143972396856 0.36378969252109533 12.199397563934328 0.97269774436296863 0.19607505947351458 1.0000000180025095e-35 0.14568316936492923 7.2233805656433114 0.48015424609184271 0.08108930662274362 0.59297800064086925 -1.0000000180025095e-35 7.2233805656433114 1.1698553222457684 5.6543879508972177 7.9292855262756357 -2.055555488192002 1.1952503835963451
decision_type=2 2 2 2 2 2 2 2 2 2 2 2 2 2 2 2 2 2 2 2 2 2 2 2 2 2 2 2 2 2
left_child=1 5 18 4 11 17 9 10 16 15 20 25 -9 -12 27 -5 -7 -1 -3 -14 -4 26 -16 -15 -25 -2 -10 28 -6 -13
right_child=3 2 7 6 14 8 -8 12 21 -11 13 29 19 23 22 -17 -18 -19 -20 -21 -22 -23 -24 24 -26 -27 -28 -29 -30 -31
leaf_value=0.71789586067199707 -0.053291015625000077 -0.068430314064025846 0.022615432739257812 0.083911571502685689 -0.0036795902252197976 0.038661251068115382 0.11037164688110367 0.081806373596191417 0.1556301546096801 -0.4924426460266112 -0.082863559722900257 0.00019366264343254614 0.066120443344116361 0.01790052413940444 -0.28515619277954091 -0.14999422073364244 0.14175831794738764 0.42815224647521966 -0.029084672927856305 -0.012049064636230612 0.075202369689941415 0.2257290077209472 -0.53298973083496082 -0.026293354034423899 0.015968046188354634 0.0070012569427490238 -0.0095184135437012436 -0.20141691207885729 -0.013735141754150249 0.00019366264343254614
leaf_weight=845 901 310 417 198 84 256 257 470 106 777 155 55 424 242 708 423 1993 6090 238 82 674 1526 359 334 265 58 55 7943 885 54
leaf_count=845 901 310 417 198 84 256 257 470 106 777 155 55 424 242 708 423 1993 6090 238 82 674 1526 359 334 265 58 55 7943 885 54
internal_value=0.000218879 0.0163548 0.00406397 -0.0181782 -0.0195868 0.0204374 -0.00877644 0.00699478 0.0165015 -0.0116953 0.00377336 -0.00692884 0.0138832 -0.00125502 -0.0209415 -0.00438808 0.0131058 0.0226712 -0.0123175 0.00839921 0.00836389 0.0210285 -0.0160965 0.00109988 -0.00171119 -0.00904588 0.0110248 -0.0215215 -0.0178793 0.0116972
internal_weight=27184 14482 3611 12702 11047 10871 1655 3063 3936 1398 2087 1068 976 996 9979 621 2249 6935 548 506 1091 1687 1067 841 599 959 161 8912 969 109
internal_count=27184 14482 3611 12702 11047 10871 1655 3063 3936 1398 2087 1068 976 996 9979 621 2249 6935 548 506 1091 1687 1067 841 599 959 161 8912 969 109
is_linear=0
shrinkage=0.05


Tree=2
num_leaves=31
num_cat=0
split_feature=15 14 14 15 15 15 14 15 14 17 14 14 14 17 15 14 2 15 14 15 14 15 15 2 17 15 14 0 15 14
split_gain=3090.1 312.167 263.377 101.617 133.775 53.4582 50.4646 41.72 30.6739 28.0327 21.4547 33.2872 20.8213 16.9419 15.6957 13.534 13.2931 12.3611 12.2531 11.6589 28.944 11.1716 33.7896 9.55294 8.99773 8.55392 21.7266 8.45918 7.08483 6.61314
threshold=6.8887839317321786 30.855633735656742 40.01298904418946 7.7326354980468759 12.199397563934328 26.218253135681156 35.550239562988288 4.9245927333831796 302.93663024902349 0.23902758955955508 36.455842971801765 36.065473556518562 50.102111816406257 0.2326488941907883 6.473677635192872 47.339200973510749 1.0000000180025095e-35 13.553238868713381 103.46464157104494 1.0000000180025095e-35 146.06536865234378 5.1844129562377939 5.180363893508912 1.0000000180025095e-35 0.54507026076316845 15.165891647338869 24.423343658447269 1.0000000180025095e-35 3.6905989646911626 40.808101654052741
decision_type=2 2 2 2 2 2 2 2 2 2 2 2 2 2 2 2 2 2 2 2 2 2 2 2 2 2 2 2 2 2
left_child=2 5 6 9 12 25 24 15 14 29 11 -11 -5 -8 18 28 27 -18 -9 20 -17 22 -20 -15 -1 -2 -27 -6 -4 -3
right_child=1 3 7 4 16 -7 13 8 -10 10 -12 -13 -14 23 -16 19 17 -19 21 -21 -22 -23 -24 -25 -26 26 -28 -29 -30 -31
leaf_value=-0.096879959106445312 -0.24244260120391845 -0.1081604583263399 -0.10797082757949834 -0.077719529151916697 0.039122006416320687 0.042625815391540561 -0.021266435861587496 0.18013202571868875 -0.049249857425689575 0.00018397951126090107 -0.01539224004745492 0.077716054916381699 -0.05644071865081806 0.050820312500000145 0.068432709932327293 -1.5814604268074035 -0.081455157279968132 0.22271353435516339 0.20100973272323622 0.40750817441940301 0.68672063970565811 0.14115045690536512 -0.049249857425689575 0.084191035270690773 -0.0073402874469755026 -0.54639574337005603 -0.059539950370788478 -0.37758753108978277 0.12725049161910995 -0.0099569664001464275
leaf_weight=495 6366 195 50 2791 368 199 224 3104 102 876 920 260 993 349 674 50 86 308 113 6070 795 253 77 169 118 703 179 57 155 85
leaf_count=495 6366 195 50 2791 368 199 224 3104 102 876 920 260 993 349 674 50 86 308 113 6070 795 253 77 169 118 703 179 57 155 85
internal_value=0.000332916 -0.0155672 0.018206 -0.00793702 -0.0122474 -0.0226769 -0.00263838 0.0206742 0.0167997 0.000556507 0.00257782 0.0071743 -0.016213 0.00613208 0.0174544 0.0230267 0.00607448 0.0126904 0.0187835 0.023402 0.0178994 0.0110045 0.00184211 0.0111004 -0.0132545 -0.0233789 -0.0187642 -5.88235e-05 0.0103659 -0.0142857
internal_weight=27184 14386 12798 6939 4603 7447 1355 11443 4323 2336 2056 1136 3784 742 4221 7120 819 394 3547 6915 845 443 190 518 613 7248 882 425 205 280
internal_count=27184 14386 12798 6939 4603 7447 1355 11443 4323 2336 2056 1136 3784 742 4221 7120 819 394 3547 6915 845 443 190 518 613 7248 882 425 205 280
is_linear=0
shrinkage=0.05


Tree=3
num_leaves=31
num_cat=0
split_feature=15 14 14 15 15 14 15 14 15 15 14 15 18 15 14 14 18 14 2 14 15 14 15 15 15 14 2 14 15 14
split_gain=2826.2 399.831 256.146 115.823 126.513 61.1237 51.0043 50.9356 44.1713 30.0466 28.8788 26.4753 22.2879 16.8069 16.5301 22.9592 14.5644 13.1056 13.0298 12.1771 12.1747 11.7133 13.361 33.097 11.5784 29.0422 11.1674 10.7567 9.56402 21.2773
threshold=6.8887839317321786 30.855633735656742 40.362674713134773 7.9292855262756357 12.199397563934328 31.121397972106937 26.218253135681156 35.550239562988288 4.9245927333831796 7.4199578762054452 302.93663024902349 7.6302859783172616 0.22318901866674426 6.1512291431427011 36.455842971801765 35.372339248657234 0.15378969907760623 87.789604187011733 1.0000000180025095e-35 47.339200973510749 13.553238868713381 103.46464157104494 5.1844129562377939 5.180363893508912 1.0000000180025095e-35 165.73447418212893 1.0000000180025095e-35 73.782562255859389 15.165891647338869 23.448244094848636
decision_type=2 2 2 2 2 2 2 2 2 2 2 2 2 2 2 2 2 2 2 2 2 2 2 2 2 2 2 2 2 2
left_child=2 6 7 5 17 11 28 -1 19 12 13 -3 -7 21 15 -14 -9 -5 -6 -4 -20 -10 23 -23 25 -21 -18 -11 -2 -30
right_child=1 3 8 4 18 9 -8 16 10 27 -12 -13 14 -15 -16 -17 26 -19 20 24 -22 22 -24 -25 -26 -27 -28 -29 29 -31
leaf_value=-0.073946257352828934 -0.23032047114372248 -0.029092843842506613 0.088570128369331522 -0.091503449773788867 -0.0040174511432649494 -0.067772327142953878 0.040494524621963637 -0.019593190467357857 0.19035714249610899 -0.033374242138862621 -0.046787364554404937 0.0018966185092924805 0.0032307845830914063 0.077561235082149696 -0.0013655093431472311 0.073830252170562716 0.04305327749252328 -0.039220842218399103 -0.077382399415969694 -1.4976678333997726 0.21157785763740514 0.19095924608707443 0.14425723664760587 -0.046787364554404937 0.38713276569843275 0.65238460772037543 0.07998148350715617 0.041116872453689626 -0.5547492693424223 -0.055158636426925513
leaf_weight=613 6366 54 200 2803 425 202 199 205 2573 920 102 457 401 1206 638 299 407 235 86 67 308 113 202 77 6070 778 185 111 664 218
leaf_count=613 6366 54 200 2803 425 202 199 205 2573 920 102 457 401 1206 638 299 407 235 86 67 308 113 202 77 6070 778 185 111 664 218
internal_value=0.000917819 -0.0142882 0.0180106 -0.00565283 -0.0114273 0.00157365 -0.0223345 -0.0020922 0.0204996 -0.00156554 0.0164814 0.0173679 0.00285714 0.0171242 0.00519432 0.0105 0.00624216 -0.016129 0.00601343 0.0229129 0.0125635 0.0191484 0.0110969 0.00157895 0.0232646 0.0177811 0.0102196 -0.00817168 -0.0230201 -0.0181406
internal_weight=27184 14386 12798 6939 3857 3082 7447 1410 11388 2571 4273 511 1540 4171 1338 700 797 3038 819 7115 394 2965 392 190 6915 845 592 1031 7248 882
internal_count=27184 14386 12798 6939 3857 3082 7447 1410 11388 2571 4273 511 1540 4171 1338 700 797 3038 819 7115 394 2965 392 190 6915 845 592 1031 7248 882
is_linear=0
shrinkage=0.05


Tree=4
num_leaves=31
num_cat=0
split_feature=14 14 14 14 14 2 3 1 14 14 14 16 14 16 17 17 4 16 14 14 14 18 16 9 17 14 4 14 14 9
split_gain=2489.66 212.362 202.507 77.6304 82.4317 74.7588 46.3974 25.6066 31.9181 18.973 17.4057 16.6712 14.0348 20.7784 39.7942 17.7019 12.1113 11.288 10.018 9.6671 9.55453 9.25659 8.51321 8.32004 7.89932 6.90711 6.84691 11.2479 6.83388 6.71465
threshold=35.372339248657234 67.243526458740249 30.430697441101078 31.121397972106937 30.971629142761234 1.0000000180025095e-35 1.0000000180025095e-35 1.0000000180025095e-35 50.102111816406257 49.426378250122077 41.92280578613282 0.034947205334901817 127.79519271850587 0.34289312362670904 0.41767382621765142 0.41019046306610113 1.0000000180025095e-35 0.034947205334901817 80.018222808837905 31.107695579528812 58.333751678466804 0.3175134956836701 0.12047365307807924 -1.0000000180025095e-35 0.14568316936492923 29.408071517944339 1.0000000180025095e-35 33.093719482421882 122.05714035034181 -0.48022543664844169
decision_type=2 2 2 2 2 2 2 2 2 2 2 2 2 2 2 2 2 2 2 2 2 2 2 2 2 2 2 2 2 2
left_child=2 5 25 4 -4 7 16 8 -2 23 22 -12 13 -3 15 18 -7 -10 -15 -6 -19 -11 -9 29 -5 -1 -26 -28 -16 -8
right_child=1 12 3 24 19 6 9 10 17 21 11 -13 -14 14 28 -17 -18 20 -20 -21 -22 -23 -24 -25 26 -27 27 -29 -30 -31
leaf_value=-0.25393027537584312 -0.16645044830560707 0.26065433406591404 -0.042942707474231769 -0.09383903237581244 7.9949610233143181e-05 0.033072187069654292 0.027147375960498901 -0.080252738883197602 0.21305416162371638 0.18896986052274656 0.2413019948756695 0.06101004407763462 0.45017834241747839 -0.26059426096200938 0.19509323024511327 -0.043122966558933135 0.19591809892415954 -0.054970414907932155 0.041692880089282805 0.001854602067470168 0.033235874727964188 0.10915477010488495 0.016098001185655519 -0.008833958954215149 -0.034373050005436313 -0.08229130976915365 -0.044989285738468256 -0.015302739412784662 0.17612430410742769 0.061433700060844393
leaf_weight=6456 359 1427 423 211 257 114 464 122 63 421 219 2188 4960 50 1921 100 919 194 106 275 237 275 1139 351 941 851 837 641 163 500
leaf_count=6456 359 1427 423 211 257 114 464 122 63 421 219 2188 4960 50 1921 100 919 194 106 275 237 275 1139 351 941 851 837 641 163 500
internal_value=0.00103921 0.0134115 -0.0174669 -0.00773361 0.00447644 0.00728024 0.0133377 0.00320173 -0.00460141 0.00891348 0.00501636 0.00750935 0.0187264 0.0164255 0.0135256 -0.00507813 0.0219506 0.00364372 0.00544872 0.0175752 0.00075406 0.0155891 0.000257732 0.00538023 -0.0121673 -0.0222424 -0.011358 -0.00923545 0.0158109 0.00778008
internal_weight=27184 16292 10892 3585 955 7565 3044 4521 853 2011 3668 2407 8727 3767 2340 256 1033 494 156 532 431 696 1261 1315 2630 7307 2419 1478 2084 964
internal_count=27184 16292 10892 3585 955 7565 3044 4521 853 2011 3668 2407 8727 3767 2340 256 1033 494 156 532 431 696 1261 1315 2630 7307 2419 1478 2084 964
is_linear=0
shrinkage=0.05


Tree=5
num_leaves=31
num_cat=0
split_feature=15 14 14 15 14 15 14 14 16 15 15 14 15 15 14 2 15 15 2 14 15 14 15 18 14 14 5 15 14 5
split_gain=2652.36 327.722 261.59 121.876 89.1963 100.098 66.202 62.5618 56.1858 56.0156 30.8282 32.3844 22.1812 14.8936 13.3248 13.2376 12.2419 12.0983 11.8392 11.4503 11.1005 28.6662 10.5616 10.0558 10.0046 15.8761 9.86072 9.52972 19.8265 8.79334
threshold=7.3843076229095468 40.362674713134773 30.430697441101078 6.473677635192872 31.121397972106937 12.199397563934328 30.971629142761234 31.575966835021976 0.21853074431419375 23.839406967163089 4.9245927333831796 122.05714035034181 7.9292855262756357 6.1482679843902597 47.339200973510749 1.0000000180025095e-35 7.9014618396759042 6.8887839317321786 1.0000000180025095e-35 87.789604187011733 1.0000000180025095e-35 146.06536865234378 15.165891647338869 0.67707660794258129 124.92883682250978 271.07151794433599 0.99538851565045372 14.174643039703371 25.350926399230961 0.88192238600939965
decision_type=2 2 2 2 2 2 2 2 2 2 2 2 2 2 2 2 2 2 2 2 2 2 2 2 2 2 2 2 2 2
left_child=1 7 9 10 6 12 -4 -1 -9 27 14 29 -6 -10 -3 23 -8 -5 26 -14 21 -16 -17 -7 -13 -26 -15 -2 -29 -12
right_child=2 3 4 17 5 15 16 8 13 -11 11 24 19 18 20 22 -18 -19 -20 -21 -22 -23 -24 -25 25 -27 -28 28 -30 -31
leaf_value=-0.085305910659670664 -0.21734929829680924 0.081454655177023313 -0.040795572100520164 0.055322335978567949 -0.025955389092147386 0.04706172154644133 0.0017090574804544901 -0.044935247885242197 -0.00087034223306190492 0.011931656135678637 0.10248373042386767 -0.053254211532055964 -0.08891510174977775 0.0068102467349767442 -1.445293358850658 0.013072370848387039 -0.0088005132147076278 -0.0065084659133031412 0.056607483053326392 -0.052360660969197781 0.34993404584178323 0.59725646021348244 0.22338409136645493 -0.33021606634753981 0.1074937896965146 -0.061802060103595124 0.06687125852620604 -0.47944295095050316 -0.03182139488303655 0.16553438887613617
leaf_weight=508 5763 200 327 671 1112 342 455 502 305 259 541 56 2705 465 50 157 62 545 451 235 6070 795 232 75 228 109 318 812 166 2668
leaf_count=508 5763 200 327 671 1112 342 455 502 305 259 541 56 2705 465 50 157 62 545 451 235 6070 795 232 75 228 109 318 812 166 2668
internal_value=0.00100979 0.0156367 -0.0156668 0.019113 -0.00771659 -0.0103232 0.00728673 -0.000637505 0.00327046 -0.0221429 0.0208151 0.0170461 -0.0135242 0.00800845 0.0227231 0.00576923 0.0184236 0.00411184 0.0104538 -0.0157993 0.0230911 0.0177219 0.0124036 -0.000419664 0.00349873 0.00675074 0.00673691 -0.0230196 -0.018456 0.0187052
internal_weight=27184 14482 12702 11933 5702 4858 844 2549 2041 7000 10717 3602 4052 1539 7115 806 517 1216 1234 2940 6915 845 389 417 393 337 783 6741 978 3209
internal_count=27184 14482 12702 11933 5702 4858 844 2549 2041 7000 10717 3602 4052 1539 7115 806 517 1216 1234 2940 6915 845 389 417 393 337 783 6741 978 3209
is_linear=0
shrinkage=0.05


Tree=6
num_leaves=31
num_cat=0
split_feature=15 14 14 15 15 15 15 15 16 15 14 14 15 14 14 14 16 2 15 14 15 15 14 14 16 14 15 8 5 15
split_gain=2526.9 372.551 248.872 76.1897 94.7661 70.9613 67.8343 51.9305 27.9853 25.9242 24.682 33.9692 30.7898 35.8531 24.1118 19.9452 17.9664 15.0468 13.5638 26.9378 13.3328 12.6017 22.0072 10.2508 10.5658 10.2017 8.95226 8.83971 8.68013 8.14951
threshold=6.8887839317321786 30.430697441101078 36.299297332763679 7.9292855262756357 11.767860889434816 5.180363893508912 5.1844129562377939 23.839406967163089 0.18232227116823199 6.183216094970704 36.455842971801765 36.065473556518562 7.7891030311584482 31.121397972106937 48.378242492675788 29.127209663391117 0.16057772189378741 1.0000000180025095e-35 1.0000000180025095e-35 146.06536865234378 15.833980083465578 15.165891647338869 20.832159996032718 30.971629142761234 0.45036922395229345 32.975046157836921 3.6905989646911626 0.80996034420016783 0.97427810576728402 8.0478096008300799
decision_type=2 2 2 2 2 2 2 2 2 2 2 2 2 2 2 2 2 2 2 2 2 2 2 2 2 2 2 2 2 2
left_child=2 7 23 8 28 14 -7 15 -3 17 11 12 25 -14 26 21 -11 -8 19 -16 -6 -2 -23 -1 -25 -10 -4 -12 -5 -17
right_child=1 3 5 4 20 6 9 -9 10 16 27 -13 13 -15 18 29 -18 -19 -20 -21 -22 22 -24 24 -26 -27 -28 -29 -30 -31
leaf_value=-0.21899145205577 -0.23311106674225926 -0.09526589749526089 -0.11495573940596132 -0.079910124713665459 -0.0021097311361925721 -0.063866810442378963 0.099341702746263402 0.011335073328894652 -0.0002096336120189335 -0.026907994229009802 -0.0034426359413384233 0.057864557020777245 0.0016764190900740773 -0.026558859077444909 -1.3730286909081251 -0.023882253570872439 0.067759224825599956 0.17784547453414457 0.3230509359332871 0.56739363720280844 0.17044465636528408 -0.62966983141811461 -0.078485905230360947 -0.031398359356587947 0.030909054142588134 0.01260174160862846 0.11060426418363889 -0.046376155261090804 -0.080321221763378858 -0.086763472481089829
leaf_weight=182 5096 289 70 907 578 119 1350 259 658 139 773 267 311 93 50 311 1380 1297 6527 795 333 493 291 423 149 426 317 373 2221 707
leaf_count=182 5096 289 70 907 578 119 1350 259 658 139 773 267 311 93 50 311 1380 1297 6527 795 333 493 291 423 149 426 317 373 2221 707
internal_value=0.00116061 -0.0132177 0.017323 -0.00521165 -0.00977346 0.0190676 0.0139032 -0.0213043 0.000564263 0.0149664 0.0020424 0.00576923 0.00282258 0.014604 0.0219197 -0.0221296 0.00975971 0.0179543 0.0225583 0.0165976 0.00441822 -0.0232483 -0.0173469 -0.0105438 -0.00725524 -0.00156827 0.00975452 -0.00366492 -0.0139066 -0.015668
internal_weight=27184 14386 12798 7229 4039 12044 4285 7157 3190 4166 2901 1755 1488 404 7759 6898 1519 2647 7372 845 911 5880 784 754 572 1084 387 1146 3128 1018
internal_count=27184 14386 12798 7229 4039 12044 4285 7157 3190 4166 2901 1755 1488 404 7759 6898 1519 2647 7372 845 911 5880 784 754 572 1084 387 1146 3128 1018
is_linear=0
shrinkage=0.05


Tree=7
num_leaves=31
num_cat=0
split_feature=5 5 3 1 16 17 16 17 4 4 5 18 11 9 11 5 18 17 18 5 17 18 17 9 17 18 5 17 9 18
split_gain=226.163 128.824 73.2163 50.9109 47.9357 69.5374 49.5747 32.8696 29.2273 27.6107 26.1185 25.9154 25.3853 19.1413 22.5935 19.1255 17.9147 16.5903 17.0458 16.5366 15.619 14.1796 13.6798 13.2051 11.4337 34.0156 10.8909 10.8686 10.3911 10.2683
threshold=0.99113027040233292 0.99974654665118157 1.0000000180025095e-35 1.0000000180025095e-35 0.63246849179267894 0.67618530988693248 0.53354516625404369 -0.10865413397550581 1.0000000180025095e-35 1.0000000180025095e-35 1.0000000180025095e-35 0.51003018021583568 1.3955841606713022 -0.48022543664844169 0.86941817874952465 0.97427810576728402 0.34885692596435552 0.47173920273780828 0.42482660710811621 0.99298939939774022 0.7323947846889497 0.71556803584098827 -0.26930229365825648 -1.0000000180025095e-35 0.67618530988693248 0.63793250918388378 0.96299868432512892 0.55742070078849804 -1.3770977637636406 0.58001801371574413
decision_type=2 2 2 2 2 2 2 2 2 2 2 2 2 2 2 2 2 2 2 2 2 2 2 2 2 2 2 2 2 2
left_child=2 7 3 -1 5 6 10 -2 26 11 17 27 16 15 23 -12 -5 22 -19 -11 -10 -22 -4 -15 29 -26 -6 -9 -17 -21
right_child=1 -3 4 12 8 -7 -8 9 20 19 13 -13 -14 14 -16 28 -18 18 -20 24 21 -23 -24 -25 25 -27 -28 -29 -30 -31
leaf_value=0.036667361533473296 0.20242682603580811 0.12098275561823045 0.31657773164493896 0.17156569622980058 0.071932486734124099 0.29924021096406417 -0.11131643389328971 -0.062048279213251692 -0.037751518654169661 0.00046541588638646661 0.11026899790639853 -0.12031932846085454 -0.11815960596577534 0.13419000411106233 0.0098824153668264358 0.0133346138670845 0.091327126146999768 0.23679302194312513 0.020301485374423934 -0.051033207293460947 0.13482486275417643 -0.0098143622649748963 -0.015676912665344035 0.11557276879919627 0.10211598799048219 -0.045163082966651308 -0.26265271799498996 0.061105964304653607 -0.033772244553319557 -0.16189321176940405
leaf_weight=1039 171 1671 64 1474 78 978 819 2075 223 1014 742 1903 79 1616 853 367 228 303 865 3300 373 416 2268 1589 386 1012 617 144 284 233
leaf_count=1039 171 1671 64 1474 78 978 819 2075 223 1014 742 1903 79 1616 853 367 228 303 865 3300 373 416 2268 1589 386 1012 617 144 284 233
internal_value=0.0014641 -0.00370098 0.005491 0.012766 0.00384384 0.00508001 0.00380757 -0.00580191 -0.00393966 -0.00617115 0.00488493 -0.00931587 0.0178972 0.00704917 0.00878512 0.0019921 0.0191833 0.00151429 0.00637842 -0.00399075 0.00148221 0.00478454 -0.000921955 0.0107098 -0.00518657 -0.00135908 -0.0118345 -0.00564443 -0.00426267 -0.0067011
internal_weight=27184 11909 15275 2820 12455 10748 9770 10238 1707 10067 8951 4122 1781 5451 4058 1393 1702 3500 1168 5945 1012 789 2332 3205 4931 1398 695 2219 651 3533
internal_count=27184 11909 15275 2820 12455 10748 9770 10238 1707 10067 8951 4122 1781 5451 4058 1393 1702 3500 1168 5945 1012 789 2332 3205 4931 1398 695 2219 651 3533
is_linear=0
shrinkage=0.05


Tree=8
num_leaves=31
num_cat=0
split_feature=15 14 14 15 15 15 15 14 14 17 3 2 2 14 15 14 14 1 2 15 14 15 17 15 14 14 15 18 5 16
split_gain=2399.62 337.363 251.117 79.3152 105.193 58.3352 56.0307 35.3758 30.8411 23.8922 22.549 21.6019 18.8895 15.6818 15.0152 28.1611 14.5786 14.8148 12.6761 12.3384 19.55 11.4999 11.211 10.9137 10.7003 24.8573 12.5808 10.6238 10.5077 9.79847
threshold=6.8887839317321786 29.04420375823975 40.01298904418946 7.9292855262756357 13.050963401794435 4.7158002853393564 23.839406967163089 36.455842971801765 302.93663024902349 0.16379701346158984 1.0000000180025095e-35 1.0000000180025095e-35 1.0000000180025095e-35 47.339200973510749 1.0000000180025095e-35 250.38629150390628 29.127209663391117 1.0000000180025095e-35 1.0000000180025095e-35 14.174643039703371 20.832159996032718 6.473677635192872 0.54172414541244518 11.767860889434816 31.036653518676761 31.121397972106937 7.3843076229095468 0.59629580378532421 0.98081572043367038 0.15350104868412021
decision_type=2 2 2 2 2 2 2 2 2 2 2 2 2 2 2 2 2 2 2 2 2 2 2 2 2 2 2 2 2 2
left_child=2 6 7 9 16 13 19 22 11 -3 12 21 -11 -4 15 -15 17 -5 27 -2 -21 -7 -1 -18 -12 -26 -27 -6 -13 -9
right_child=1 3 5 4 18 8 -8 29 -10 10 24 28 -14 14 -16 -17 23 -19 -20 20 -22 -23 -24 -25 25 26 -28 -29 -30 -31
leaf_value=-0.056784948936004123 -0.22463733817072154 -0.097690702276099384 0.062782694667227898 0.0031729151612733377 0.07947903764454943 0.10032938936677667 0.011037522678240208 -0.034020281469586425 -0.058121809555586879 -0.0012083269910931451 -0.0067085192692534438 0.16037491599594739 0.042305596238131217 -0.055990479247067175 0.31614050319935533 0.54005086394895763 -0.077353417211199371 -0.066313934703395638 0.1543801474039638 -0.59262051815254468 -0.096014077426040609 0.033417809318207148 0.0046248596211768246 -0.057554084923503272 0.0036387224233813244 0.0069786966150804375 -0.026526888625160262 -0.27232927709326449 0.10555302415838881 0.066529169267739621
leaf_weight=628 4824 239 159 54 268 2143 255 137 111 237 489 1464 332 133 5834 712 3811 54 370 557 377 432 153 251 282 1038 848 100 455 437
leaf_count=628 4824 239 159 54 268 2143 255 137 111 237 489 1464 332 133 5834 712 3811 54 370 557 377 432 153 251 282 1038 848 100 455 437
internal_value=0.00119004 -0.0128215 0.0169401 -0.00633286 -0.0104218 0.0193503 -0.0218568 -0.00341328 0.015 -0.000541126 0.000588965 0.0156431 0.00962214 0.0222799 0.0226493 0.0164201 -0.0135012 0.00462963 0.00697832 -0.0228725 -0.0176124 0.0126505 -0.0103393 -0.0139833 -0.0013455 0.000161439 -0.0019088 0.000407609 0.0196587 0.00601045
internal_weight=27184 14386 12798 8373 4908 11443 6013 1355 4605 3465 3226 4494 569 6838 6679 845 4170 108 738 5758 934 2575 781 4062 2657 2168 1886 368 1919 574
internal_count=27184 14386 12798 8373 4908 11443 6013 1355 4605 3465 3226 4494 569 6838 6679 845 4170 108 738 5758 934 2575 781 4062 2657 2168 1886 368 1919 574
is_linear=0
shrinkage=0.05


Tree=9
num_leaves=31
num_cat=0
split_feature=15 14 14 15 15 15 15 14 2 17 14 3 2 15 14 14 15 14 14 2 14 15 15 15 16 17 15 16 5 15
split_gain=2281.02 318.275 241.955 83.6937 99.2557 56.0722 51.9797 43.8016 26.8391 23.0635 22.0669 18.4227 17.0873 14.6984 28.0036 14.2908 12.6105 20.8406 12.1925 11.6534 11.3129 11.2838 37.5504 10.5183 10.4702 10.3445 9.30998 9.15601 9.12432 13.5728
threshold=6.8887839317321786 29.04420375823975 42.32097244262696 7.9292855262756357 13.050963401794435 4.3381316661834726 23.839406967163089 36.455842971801765 1.0000000180025095e-35 0.16379701346158984 302.93663024902349 1.0000000180025095e-35 1.0000000180025095e-35 1.0000000180025095e-35 250.38629150390628 29.127209663391117 15.165891647338869 19.19615459442139 28.471422195434574 1.0000000180025095e-35 47.339200973510749 5.180363893508912 5.1844129562377939 11.767860889434816 0.45036922395229345 0.43587937951087957 5.6071248054504403 0.59035527706146251 0.96748297157757535 7.7320506572723398
decision_type=2 2 2 2 2 2 2 2 2 2 2 2 2 2 2 2 2 2 2 2 2 2 2 2 2 2 2 2 2 2
left_child=2 6 7 9 15 13 16 25 10 -3 21 12 -11 14 -4 -5 18 -18 -2 27 -15 -7 -23 -17 -10 -1 -24 -6 -13 -30
right_child=1 3 5 4 19 8 -8 -9 24 11 -12 28 -14 20 -16 23 17 -19 -20 -21 -22 22 26 -25 -26 -27 -28 -29 29 -31
leaf_value=-0.054509337065933749 -0.235579684760679 -0.092806167162294534 -0.053190955284713938 0.0016058831727409741 0.075185449016756681 0.13655832053819381 0.010485646544328375 0.043559469077668216 0.15235617019615014 -0.0011479106415386298 -0.053205909841765479 -0.0063730933057907892 0.040190316426224726 0.059672057201827049 0.51304832075150986 -0.073485746350639411 -0.63709700403875902 -0.081940363540494235 -0.040243390861606977 0.14666114003376568 0.32219882585961895 -0.060576857833591194 0.12463613821328874 -0.054676380677328142 0.10211349819486877 -0.0085385164010318704 0.062191150447275946 -0.24962324803621458 -0.0064270807612155428 0.0029060327062229163
leaf_weight=514 4449 239 133 108 265 1012 255 899 1636 237 116 916 332 93 712 3811 421 358 530 370 5156 78 470 251 401 267 1311 103 1180 561
leaf_count=514 4449 239 133 108 265 1012 255 899 1636 237 116 916 332 93 712 3811 421 358 530 370 5156 78 470 251 401 267 1311 103 1180 561
internal_value=0.00122866 -0.0124322 0.0165846 -0.00612982 -0.0103301 0.0192571 -0.0212082 -0.00110119 0.0153463 -0.000180375 0.0123284 0.000929944 0.0090949 0.0224811 0.0163609 -0.0133213 -0.0221865 -0.0162709 -0.0231121 0.00657182 0.0234664 0.0131923 0.0108795 -0.0137986 0.0197717 -0.00976312 0.0123666 0.000271739 -0.000818592 0.00130672
internal_weight=27184 14386 12798 8373 4908 11118 6013 1680 5024 3465 2987 3226 569 6094 845 4170 5758 779 4979 738 5249 2871 1859 4062 2037 781 1781 368 2657 1741
internal_count=27184 14386 12798 8373 4908 11118 6013 1680 5024 3465 2987 3226 569 6094 845 4170 5758 779 4979 738 5249 2871 1859 4062 2037 781 1781 368 2657 1741
is_linear=0
shrinkage=0.05


Tree=10
num_leaves=31
num_cat=0
split_feature=15 14 14 15 15 15 15 14 14 3 18 14 14 15 14 14 14 15 14 15 14 5 15 15 15 1 15 15 15 14
split_gain=2189.37 296.858 228.368 75.2122 88.5114 58.2788 48.1936 37.6706 23.7046 19.4032 19.2905 17.6849 16.0169 15.7034 21.1713 14.8043 43.6906 13.6647 13.2596 14.354 26.8625 12.8366 17.043 12.8167 39.4315 11.7028 11.3986 9.91669 9.88757 9.76862
threshold=6.8887839317321786 29.04420375823975 42.32097244262696 7.9292855262756357 11.767860889434816 4.3381316661834726 23.839406967163089 36.065473556518562 302.93663024902349 1.0000000180025095e-35 0.17843607813119891 28.32625770568848 29.127209663391117 14.174643039703371 20.274178504943851 36.455842971801765 36.065473556518562 15.165891647338869 47.900705337524421 1.0000000180025095e-35 190.46048736572268 0.99018315443525295 7.7320506572723398 5.180363893508912 5.1844129562377939 1.0000000180025095e-35 8.3422236442565936 5.9861550331115732 7.558387517929078 30.971629142761234
decision_type=2 2 2 2 2 2 2 2 2 2 2 2 2 2 2 2 2 2 2 2 2 2 2 2 2 2 2 2 2 2
left_child=2 6 7 10 12 18 11 29 9 25 -3 13 -5 -2 -15 16 21 -6 -4 20 -20 28 -23 -11 -25 -7 -13 -26 -12 -1
right_child=1 3 5 4 17 8 -8 -9 -10 23 15 26 -14 14 -16 -17 -18 -19 19 -21 -22 22 -24 24 27 -27 -28 -29 -30 -31
leaf_value=-0.20869378690825313 -0.22652979981314944 -0.086801906780315186 0.051335873833171425 0.001525589014103801 -0.01691914197473068 0.082119172653196418 0.0099613642171121342 0.037124538906130412 -0.046225178760690259 0.13519920522625384 0.0031574145750109753 -0.0054179752869117697 -0.069811459033107329 -0.57015739311499414 -0.079787078005993106 -0.018566599116099172 0.043324729132745432 0.13806836553258287 -0.42022062265851123 0.30663673879642456 0.48331369789241241 -0.0029877673871645527 0.0027427656291244776 -0.057548014941911779 0.11045157542907252 0.14735085710870593 -0.081474264959763343 0.052958720617146154 -0.006051040402387642 -0.016284281960830784
leaf_weight=182 4195 300 110 103 549 363 255 958 140 1254 370 290 3811 537 377 1153 267 445 93 5139 752 556 439 77 1166 894 359 1130 380 540
leaf_count=182 4195 300 110 103 549 363 255 958 140 1254 370 290 3811 537 377 1153 267 445 93 5139 752 556 439 77 1166 894 359 1130 380 540
internal_value=0.00127465 -0.012109 0.016319 -0.00602233 -0.0100041 0.0189153 -0.0205846 -0.000863095 0.0149283 0.0155098 -0.000382395 -0.0215266 -0.0133878 -0.0225142 -0.0165755 0.000766193 0.00335487 0.00331992 0.0222022 0.0225184 0.0164793 0.000472779 0.00419598 0.0136545 0.0114939 0.0208632 -0.0137519 0.0126742 -0.00446667 -0.00948753
internal_weight=27184 14386 12798 8373 4908 11118 6013 1680 5024 4884 3465 5758 3914 5109 914 3165 2012 994 6094 5984 845 1745 995 3627 2373 1257 649 2296 750 722
internal_count=27184 14386 12798 8373 4908 11118 6013 1680 5024 4884 3465 5758 3914 5109 914 3165 2012 994 6094 5984 845 1745 995 3627 2373 1257 649 2296 750 722
is_linear=0
shrinkage=0.05


Tree=11
num_leaves=31
num_cat=0
split_feature=15 14 14 15 15 15 15 14 17 15 14 14 14 15 14 15 3 15 14 14 15 14 14 5 5 8 14 5 16 14
split_gain=2098.11 277.194 207.993 106.11 60.5611 51.8906 50.0705 48.411 37.368 31.5214 19.7238 16.5817 23.2009 16.4422 19.8779 15.4268 15.1034 14.395 13.5375 14.102 13.0391 26.551 14.3609 9.90077 10.5878 10.3153 9.07149 8.75701 8.35407 8.2944
threshold=7.3843076229095468 42.32097244262696 28.32625770568848 6.183216094970704 13.228873252868654 7.9292855262756357 23.839406967163089 31.378952026367191 0.23902758955955508 4.3381316661834726 302.93663024902349 31.121397972106937 31.036653518676761 14.174643039703371 20.274178504943851 5.7720780372619638 1.0000000180025095e-35 6.8887839317321786 36.065473556518562 36.455842971801765 1.0000000180025095e-35 250.38629150390628 47.900705337524421 0.97427810576728402 0.9646366270072978 0.68437125836343371 58.333751678466804 0.99196002037318021 0.58730778098106395 43.137794494628913
decision_type=2 2 2 2 2 2 2 2 2 2 2 2 2 2 2 2 2 2 2 2 2 2 2 2 2 2 2 2 2 2
left_child=1 7 6 9 5 11 13 -1 15 20 16 12 27 -2 -15 -9 -11 29 -10 -20 21 -3 -22 24 -7 -25 -13 -4 -6 -5
right_child=2 3 4 17 28 23 -8 8 18 10 -12 26 -14 14 -16 -17 -18 -19 19 -21 22 -23 -24 25 -26 -27 -28 -29 -30 -31
leaf_value=-0.071858107597405768 -0.21560938510512992 -0.074697092415098962 -0.010948984300134157 0.063959451044941676 0.1176276601008187 -0.072190417467432516 0.0094632960062565278 0.032198511200397566 0.0042697567038452178 0.13998331425327068 -0.033178652337104708 -0.027425456292524332 0.0029541667142623852 -0.54164952345924433 -0.075797724105693479 -0.042704062119346277 0.10965854667914741 -0.007984547582137581 0.039749915710775956 0.043787051944117472 0.04876908014151269 0.46323021981931378 0.29130490185660313 -0.057837731357593472 0.0028096408900331938 -0.059202869409428871 0.017429075580581533 3.0696188675705117e-05 -0.063316330487007022 0.042890716920538099
leaf_weight=474 4155 133 214 116 533 1249 253 166 760 1041 120 890 347 537 377 429 2781 486 263 786 110 712 5139 2375 145 963 222 243 199 966
leaf_count=474 4155 133 214 116 533 1249 253 166 760 1041 120 890 347 537 377 429 2781 486 263 786 110 712 5139 2375 145 963 222 243 199 966
internal_value=0.00135006 0.0143592 -0.0134821 0.0178042 -0.00804878 -0.00955174 -0.0210165 0.000469076 0.00334859 0.0196941 0.01621 -0.0026096 0.0028607 -0.0221 -0.0160284 -0.00752101 0.0168367 0.00570791 0.00692371 0.0106053 0.0219478 0.0161834 0.0228758 -0.0123626 -0.00882353 -0.0138406 -0.00656475 -0.00454048 0.00560109 0.00891867
internal_weight=27184 14482 12702 11604 7380 6648 5322 2878 2404 10036 3942 1916 804 5069 914 595 3822 1568 1809 1049 6094 845 5249 4732 1394 3338 1112 457 732 1082
internal_count=27184 14482 12702 11604 7380 6648 5322 2878 2404 10036 3942 1916 804 5069 914 595 3822 1568 1809 1049 6094 845 5249 4732 1394 3338 1112 457 732 1082
is_linear=0
shrinkage=0.05


Tree=12
num_leaves=31
num_cat=0
split_feature=5 5 3 5 4 16 2 17 4 11 18 18 17 18 5 18 17 17 18 16 17 5 17 18 0 11 16 18 17 18
split_gain=168.882 79.4945 62.074 52.2758 38.5068 50.2643 35.6694 24.3365 21.6357 20.281 19.587 15.4041 12.6796 36.2272 31.4241 30.879 19.2585 13.4033 12.9241 12.8559 12.7455 12.5176 18.0548 14.9605 11.3096 16.0745 14.1509 11.2048 12.9825 11.52
threshold=0.9737550260882667 0.99974654665118157 1.0000000180025095e-35 0.99241065384161364 1.0000000180025095e-35 0.52698183059692394 1.0000000180025095e-35 -0.1871712654829025 1.0000000180025095e-35 0.86941817874952465 0.32777778804302221 0.51003018021583568 0.69672510027885448 0.51275503635406505 1.0000000180025095e-35 0.63793250918388378 0.46924376487731939 0.4593027532100678 0.42482660710811621 0.61775606870651256 0.64715760946273815 0.97462426843663152 0.49999998509883886 0.46790930628776556 1.0000000180025095e-35 -0.022586004771193626 0.34289312362670904 0.72966462373733532 0.67618530988693248 0.60000023245811474
decision_type=2 2 2 2 2 2 2 2 2 2 2 2 2 2 2 2 2 2 2 2 2 2 2 2 2 2 2 2 2 2
left_child=2 3 6 4 5 21 -1 -5 11 10 -8 -9 13 14 16 -14 -4 24 -18 20 -15 22 -2 -24 26 -26 -16 28 -6 -30
right_child=1 -3 12 7 27 -7 9 8 -10 -11 -12 -13 15 19 17 -17 18 -19 -20 -21 -22 -23 23 -25 25 -27 -28 -29 29 -31
leaf_value=0.024796328612983132 -0.019247315051056191 0.096001239885127987 -0.011376817291090191 0.14484598837929497 0.023593593419581893 -0.20482891584987328 0.13677614835750163 -0.039191744438000602 -0.024960665416743667 0.037762419925237017 0.02041926395670686 -0.079497400128707707 0.26241746480410094 -0.064960098015583875 0.037686756916489018 0.018320113898688817 0.18581721906557114 0.1913178986886287 0.019950671023993394 -0.14181407521816888 0.026531566987378952 0.042259866495200173 0.13363100080930865 -0.1081618450745193 -0.0403685224951289 0.60361303014273493 -0.0052044374053750175 -0.097434335911586706 0.29853075257291195 0.042856838938591935
leaf_weight=611 259 1671 2313 122 2071 852 1167 1961 5263 419 147 1715 556 547 1671 800 316 778 757 216 249 1231 71 93 68 264 266 163 233 334
leaf_count=611 259 1671 2313 122 2071 852 1167 1961 5263 419 147 1715 556 547 1671 800 316 778 757 216 249 1231 71 93 68 264 266 163 233 334
internal_value=0.00141627 -0.00186888 0.00614401 -0.00306932 0.00087149 -0.00363128 0.0133746 -0.00537744 -0.00568017 0.0170369 0.0200913 -0.0086235 0.00421827 0.00340833 0.0047917 0.00866519 0.00147667 0.00847555 0.00701305 -0.00538538 -0.00244975 0.00145103 -0.00596927 0.0070122 0.00653372 0.0150602 0.00507228 0.00490004 0.00568613 0.0123898
internal_weight=27184 16039 11145 14368 5307 2506 2344 9061 8939 1733 1314 3676 8801 7445 6433 1356 3386 3047 1073 1012 796 1654 423 164 2269 332 1937 2801 2638 567
internal_count=27184 16039 11145 14368 5307 2506 2344 9061 8939 1733 1314 3676 8801 7445 6433 1356 3386 3047 1073 1012 796 1654 423 164 2269 332 1937 2801 2638 567
is_linear=0
shrinkage=0.05


Tree=13
num_leaves=31
num_cat=0
split_feature=15 15 15 15 15 17 17 17 5 16 15 5 3 17 15 16 15 15 4 17 17 18 5 17 4 16 16 17 15 5
split_gain=1934.08 231.025 115.742 85.7126 66.7748 46.6104 24.4159 40.7597 24.0035 21.8117 21.7164 18.5454 16.6499 10.6382 10.4961 10.4813 10.4397 10.2017 10.0516 9.99404 9.77232 9.02608 8.81012 8.64231 7.92648 7.48109 8.49291 7.42987 7.24379 6.95421
threshold=7.3843076229095468 6.183216094970704 8.3154287338256854 14.174643039703371 4.3381316661834726 0.2735604196786881 0.61549267172813427 0.61550265550613414 0.88192238600939965 0.69566768407821666 8.6909036636352557 0.97462426843663152 1.0000000180025095e-35 0.25000001490116125 18.523708343505863 0.4111145436763764 11.767860889434816 1.0000000180025095e-35 1.0000000180025095e-35 0.40633800625801092 0.48015424609184271 0.32484143972396856 0.88192238600939965 0.34974804520607 1.0000000180025095e-35 0.24421811848878863 0.37277899682521826 0.15000005811452868 23.839406967163089 0.96579271540190037
decision_type=2 2 2 2 2 2 2 2 2 2 2 2 2 2 2 2 2 2 2 2 2 2 2 2 2 2 2 2 2 2
left_child=1 4 6 10 17 27 23 -8 19 14 -4 25 18 -13 15 -5 -12 -1 -7 -6 21 22 -14 -2 29 -10 -27 -3 -11 -25
right_child=2 5 3 9 8 12 7 -9 11 28 16 13 20 -15 -16 -17 -18 -19 -20 -21 -22 -23 -24 24 -26 26 -28 -29 -30 -31
leaf_value=0.41796621514686266 -0.037871244329464204 -0.044557941720034223 -0.042801990374724146 0.018999168721172667 0.00012173400876704933 0.0047028248103956121 0.00077896247044968454 -0.0059456489862542488 0.063044735889031145 -0.43539696157203167 -0.16671772705931398 0.037648055315452213 -0.03000281858601106 0.10113683406817452 0.027272731704721664 -0.19090413172094056 -0.2674024489614471 0.2672560521013056 0.032332189472693784 0.077443406433511441 0.030420087149814635 -0.025360367943838471 0.032606143777279328 -0.028209568335054769 -0.011626862556499518 0.13099363061247829 0.11648925417257204 -0.017827491512058913 -0.029407575809977084 0.0021208354667725973
leaf_weight=845 1013 325 1373 273 399 178 160 754 338 335 4883 347 90 1828 581 488 1245 5334 365 571 1514 451 335 105 1000 938 271 353 66 426
leaf_count=845 1013 325 1373 273 399 178 160 754 338 335 4883 347 90 1828 581 488 1245 5334 365 571 1514 451 335 105 1000 938 271 353 66 426
internal_value=0.0015064 0.0139967 -0.0127342 -0.0156534 0.0176364 0.00303932 -0.0049306 0.00207877 0.0131394 -0.00566552 -0.0179743 0.0149651 0.00577054 0.0119885 -0.00260805 -0.00647175 -0.0192477 0.0210511 0.013674 0.00613402 0.0039749 -0.000228311 0.005 -0.0074489 -0.00507838 0.01915 0.0209884 -0.00877581 -0.0158978 -0.000141243
internal_weight=27184 14482 12702 9244 10871 3611 3458 914 4692 1743 7501 3722 2933 2175 1342 761 6128 6179 543 970 2390 876 425 2544 1531 1547 1209 678 401 531
internal_count=27184 14482 12702 9244 10871 3611 3458 914 4692 1743 7501 3722 2933 2175 1342 761 6128 6179 543 970 2390 876 425 2544 1531 1547 1209 678 401 531
is_linear=0
shrinkage=0.05


Tree=14
num_leaves=31
num_cat=0
split_feature=15 14 14 15 15 15 15 15 17 17 14 17 15 14 15 14 14 3 18 14 8 1 15 14 15 14 14 14 15 5
split_gain=1807.87 383.119 181.391 49.3587 46.0262 72.4383 41.1484 42.7993 37.8509 28.974 24.6363 22.7354 23.1781 22.4485 21.5722 23.8024 20.2999 18.6732 17.223 17.1605 15.2362 14.7678 14.7096 26.4521 11.4826 21.5584 10.7973 25.3699 12.032 14.1522
threshold=6.5764036178588876 29.704493522644047 40.362674713134773 4.3381316661834726 8.3422236442565936 11.767860889434816 23.839406967163089 8.4638500213623065 0.61390966176986705 0.61550265550613414 35.810096740722663 0.15000005811452868 7.9292855262756357 271.07151794433599 14.174643039703371 18.609786987304691 27.862676620483402 1.0000000180025095e-35 0.31977282464504247 54.678161621093757 1.0000000180025095e-35 1.0000000180025095e-35 1.0000000180025095e-35 250.38629150390628 7.3843076229095468 31.251760482788089 35.810096740722663 36.455842971801765 7.756253957748414 0.99158199315893825
decision_type=2 2 2 2 2 2 2 2 2 2 2 2 2 2 2 2 2 2 2 2 2 2 2 2 2 2 2 2 2 2
left_child=2 6 10 19 8 -6 7 16 11 -10 -1 -3 20 17 -9 -16 -2 21 -18 -4 26 -5 23 -21 -11 -26 28 -28 -13 -30
right_child=1 4 3 13 5 -7 -8 14 9 24 -12 12 -14 -15 15 -17 18 -19 -20 22 -22 -23 -24 -25 25 -27 27 -29 29 -31
leaf_value=-0.066280542608649115 -0.10039690256755184 -0.071963301958360579 0.070869801326438164 0.079103113503202149 -0.094215299645053471 0.05358730844135931 0.010420116060323182 -0.18625158370441391 0.00074001434692725363 0.023440347803159511 0.019588627767844358 -0.0065079177913791144 -0.044263267520424782 -0.036543475819944153 -0.57229384852019949 -0.080090558743344087 -0.024462816287549316 0.091412495798829249 -0.00042581355602457906 -0.09310036498233637 -0.009064576754697384 0.12338765940900275 0.27024141233920107 0.41649899011275715 0.0096772468623754562 -0.023857305719839419 0.030485682394436431 0.014034789865696597 -0.0038852537052136427 0.0048801834982935338
leaf_weight=482 376 364 335 321 2439 954 257 4238 223 624 502 538 597 153 440 512 276 3408 479 133 995 867 4927 712 204 472 246 867 85 158
leaf_count=482 376 364 335 321 2439 954 257 4238 223 624 502 538 597 153 440 512 276 3408 479 133 995 867 4927 712 204 472 246 867 85 158
internal_value=0.00171057 -0.00961614 0.0163894 0.0182526 -0.00277207 -0.00733127 -0.0187367 -0.0195341 0.000107017 0.00677938 -0.00416667 -0.00253247 -0.00129088 0.0144294 -0.0214547 -0.0146534 -0.0107206 0.0150566 -0.00599338 0.0212256 0.000562478 0.0204545 0.0218642 0.0157692 0.00392308 -0.000591716 0.0031943 0.00635669 -0.00131242 0.00792181
internal_weight=27184 15344 11840 10856 8766 3393 6578 6321 5373 1523 984 3850 3486 4749 5190 952 1131 4596 755 6107 2889 1188 5772 845 1300 676 1894 1113 781 243
internal_count=27184 15344 11840 10856 8766 3393 6578 6321 5373 1523 984 3850 3486 4749 5190 952 1131 4596 755 6107 2889 1188 5772 845 1300 676 1894 1113 781 243
is_linear=0
shrinkage=0.05


Tree=15
num_leaves=31
num_cat=0
split_feature=14 14 14 2 3 14 5 14 14 17 16 17 17 1 14 16 14 14 1 14 14 9 16 5 14 3 14 2 5 5
split_gain=1552.32 214.976 188.78 44.1955 41.2218 28.3108 24.9715 26.7375 22.2342 20.0717 19.67 21.7606 22.8079 18.3009 18.1405 16.9682 16.0614 15.898 12.6887 11.9435 22.0309 9.56323 9.52381 8.29008 8.01859 7.52562 10.2736 7.33251 7.05348 7.00373
threshold=34.473678588867195 67.243526458740249 28.32625770568848 1.0000000180025095e-35 1.0000000180025095e-35 35.810096740722663 0.99672341314331114 34.854627609252937 127.79519271850587 0.29230768978595739 0.29999960958957678 0.41767382621765142 0.41428568959236151 1.0000000180025095e-35 42.32097244262696 -0.10395482182502745 30.430697441101078 49.426378250122077 1.0000000180025095e-35 31.121397972106937 31.107695579528812 -2.055555488192002 0.39487020671367651 0.97269774436296863 26.922805786132816 1.0000000180025095e-35 57.455942153930671 1.0000000180025095e-35 0.99135548187673495 0.99318330954337752
decision_type=2 2 2 2 2 2 2 2 2 2 2 2 2 2 2 2 2 2 2 2 2 2 2 2 2 2 2 2 2 2
left_child=2 3 24 6 5 -5 14 -8 10 -4 27 12 22 -7 18 -16 -11 -6 -2 20 28 -19 29 -10 -1 26 -17 -3 -18 -12
right_child=1 8 9 4 17 13 7 -9 23 16 11 -13 -14 -15 15 25 19 21 -20 -21 -22 -23 -24 -25 -26 -27 -28 -29 -30 -31
leaf_value=-0.23449741531354784 -0.17970023427204362 0.11356629190315957 -0.068091998183507488 -0.0083467684840169195 0.015616241241877483 0.017245823476846844 0.00070301362958105076 0.024601089215461159 0.33282866434961567 -0.025967547203923403 0.067030200319232944 0.11587497177261277 -0.0028829550422649675 0.11081378119929469 0.15642321658698927 -0.086274144728305663 -0.0039096435695466173 -0.006810416020340427 -0.018063042150633635 -0.021913652235474503 0.0046361743233788392 0.10892566212275093 -0.20948068472518744 0.24077952386415655 -0.064839555089777789 0.023610482741065298 0.024083306526658001 0.18785569983466319 0.0011962727624709403 -0.046346534654476912
leaf_weight=4214 156 609 937 80 1434 136 248 1086 2535 1523 183 2155 99 836 206 271 223 126 1139 1592 253 570 51 2425 1227 1673 188 615 339 55
leaf_count=4214 156 609 937 80 1434 136 248 1086 2535 1523 183 2155 99 836 206 271 223 126 1139 1592 253 570 51 2425 1227 1673 188 615 339 55
internal_value=0.00176942 0.0111075 -0.0135186 0.00526752 0.00986801 0.0179658 0.00232031 0.00817091 0.0165607 -0.00636429 0.0136647 0.0111581 0.000257732 0.0203189 0.000172034 0.00280154 -0.00479644 0.00586854 -0.00457529 -0.00225384 0.00266871 0.012069 0.00735294 0.0187601 -0.0199182 0.00147749 -0.0041939 0.0188725 -0.00284698 0.0115546
internal_weight=27184 16876 10308 8149 3182 1052 4967 1334 8727 4867 3767 2543 388 972 3633 2338 3930 2130 1295 2407 815 696 289 4960 5441 2132 459 1224 562 238
internal_count=27184 16876 10308 8149 3182 1052 4967 1334 8727 4867 3767 2543 388 972 3633 2338 3930 2130 1295 2407 815 696 289 4960 5441 2132 459 1224 562 238
is_linear=0
shrinkage=0.05


Tree=16
num_leaves=31
num_cat=0
split_feature=15 15 15 15 17 5 15 17 15 18 16 17 17 8 15 15 15 15 15 8 15 11 15 16 15 18 17 5 5 11
split_gain=1637.52 270.867 97.7741 89.5809 38.364 33.8005 30.8487 23.79 25.872 23.8663 23.5344 20.7546 52.1942 14.8352 13.8288 12.741 15.2655 12.0546 10.5047 10.4634 9.66712 8.6189 8.58068 8.35166 7.96202 7.86744 7.75037 7.55467 7.26726 6.69728
threshold=6.473677635192872 8.5791287422180194 14.174643039703371 3.2684181928634648 0.2735604196786881 0.88192238600939965 7.3843076229095468 0.24801310896873477 5.6937146186828622 0.29999969899654394 0.68268701434135448 0.61549267172813427 0.61550265550613414 1.0000000180025095e-35 1.0000000180025095e-35 8.5709252357482928 8.3154287338256854 4.6543879508972177 5.180363893508912 0.50000000000000011 18.523708343505863 0.049631900364884483 11.767860889434816 0.4111145436763764 9.1322231292724627 0.32484143972396856 0.48015424609184271 0.99135548187673495 0.99677483943727652 -0.022586004771193626
decision_type=2 2 2 2 2 2 2 2 2 2 2 2 2 2 2 2 2 2 2 2 2 2 2 2 2 2 2 2 2 2
left_child=3 4 22 14 -2 18 13 8 -7 19 20 15 -13 25 -1 16 21 -11 -5 -9 23 -8 24 -4 -3 29 -15 -23 -27 -6
right_child=1 2 10 5 6 7 11 9 -10 17 -12 12 -14 26 -16 -17 -18 -19 -20 -21 -22 27 -24 -25 -26 28 -28 -29 -30 -31
leaf_value=0.36249737022000911 -0.047148575156893462 -0.074137313826656379 0.023095527163593133 0.073719991740410329 -0.011073394158291805 0.0710053368648568 -0.020153518644964487 0.11273387705143918 -0.015101852871482181 0.12772827533914324 -0.32576423291162016 0.00066786294810192723 -0.0032510943432336962 -0.032278059632748858 0.30545320072890264 0.026899684585556471 -0.047597655624502272 0.078777923036157382 0.0095216583860810999 0.045446856389257564 0.04057427267327221 -0.0068029229528310253 -0.23557783094323989 -0.16694963854074968 -0.17203792594194028 0.0088785345492077283 0.0072917642237307241 0.0010827410987733544 0.033789417876531051 0.022242029854040269
leaf_weight=845 1178 1524 273 880 69 704 900 1439 275 1009 429 213 1058 300 3638 69 488 1998 705 125 573 549 1245 468 3669 735 557 584 283 402
leaf_count=845 1178 1524 273 880 69 704 900 1439 275 1009 429 213 1058 300 3638 69 488 1998 705 125 573 549 1245 468 3669 735 557 584 283 402
internal_value=0.00178782 -0.00881408 -0.0150807 0.0159924 -0.00187204 0.0125123 -0.000302078 0.0143514 0.00727783 0.0158663 -0.00457544 -0.00304973 0.00218332 0.00421995 0.0215313 -0.00561776 -0.00619794 0.0132607 0.00607256 0.020876 -0.00125571 -0.00429169 -0.0179248 -0.00502699 -0.0188186 0.0072364 -0.001021 -0.00139011 0.00476424 0.0125796
internal_weight=27184 15566 8181 11618 7385 7135 6207 5550 979 4571 1743 3861 1271 2346 4483 2590 2521 3007 1585 1564 1314 2033 6438 741 5193 1489 857 1133 1018 471
internal_count=27184 15566 8181 11618 7385 7135 6207 5550 979 4571 1743 3861 1271 2346 4483 2590 2521 3007 1585 1564 1314 2033 6438 741 5193 1489 857 1133 1018 471
is_linear=0
shrinkage=0.05


Tree=17
num_leaves=31
num_cat=0
split_feature=15 14 14 15 15 15 15 16 2 14 14 14 14 14 15 14 15 14 16 16 2 15 14 15 15 15 15 5 15 15
split_gain=1509.02 376.519 159.634 55.3912 53.4844 44.4732 65.5325 32.5667 24.8952 24.3786 22.0625 21.5776 18.2628 18.0334 17.3563 15.4697 16.2402 28.1149 14.6265 18.569 17.452 23.5679 14.5334 13.7943 17.4756 16.7071 13.2238 12.9986 12.9832 27.6844
threshold=6.473677635192872 28.32625770568848 40.362674713134773 17.899422645568851 3.2684181928634648 8.3422236442565936 11.767860889434816 0.1862263157963753 1.0000000180025095e-35 80.018222808837905 17.062662124633793 36.299297332763679 26.589373588562015 260.00784301757818 29.590348243713382 51.028005599975593 1.0000000180025095e-35 250.38629150390628 0.54814478754997265 0.5718035399913789 1.0000000180025095e-35 7.9292855262756357 92.169013977050795 5.1342368125915536 5.1844129562377939 5.180363893508912 4.7830567359924325 0.99662167963992598 8.5791287422180194 8.5709252357482928
decision_type=2 2 2 2 2 2 2 2 2 2 2 2 2 2 2 2 2 2 2 2 2 2 2 2 2 2 2 2 2 2
left_child=2 3 11 12 15 7 9 -3 13 28 14 -1 -2 23 -5 -4 17 -17 20 27 -9 -22 -11 -6 25 -25 -15 -20 29 -7
right_child=1 5 4 10 8 6 -8 18 -10 22 -12 -13 -14 26 -16 16 -18 -19 19 -21 21 -23 -24 24 -26 -27 -28 -29 -30 -31
leaf_value=-0.057931429391082291 -0.22595524912009282 -0.052565576489690714 -0.039133282915433304 -0.53473754507572124 0.10187309444860998 -0.069408548131733389 0.05361023949410644 -0.0058759210258852342 0.10709718319886719 0.0058630890069455432 0.03590284117793896 0.021153399393273986 -0.065428611183260627 0.051752910099849815 0.057850345084986543 -0.12321164846170092 0.29231363808584271 0.36325374024481366 -0.0012741735894092445 0.0040685182452218525 0.012318216126498173 -0.020583806115288362 -0.029005571289976651 0.061285090697436401 0.064452540635540248 -0.082171463508269232 -0.069119670176411671 0.00063446980069699073 -0.098800593152131466 0.02141759828999561
leaf_weight=486 3376 601 65 243 2014 436 1033 2652 2410 107 270 415 1386 132 106 133 3546 712 105 1165 1077 316 180 58 1466 75 106 288 2072 153
leaf_count=486 3376 601 65 243 2014 436 1033 2652 2410 107 270 415 1386 132 106 133 3546 712 105 1165 1077 316 180 58 1466 75 106 288 2072 153
internal_value=0.00199934 -0.00817808 0.0156352 -0.0188766 0.0173346 -0.00252577 -0.00665034 0.00012089 0.0143547 -0.0104478 -0.00480614 -0.00457825 -0.0207056 0.0118606 -0.0131089 0.0215215 0.02188 0.0156509 0.00130734 0.00542362 -0.000278121 0.00425341 0.00339721 0.0127387 0.00927142 -0.00808271 -0.00147059 0.0148219 -0.011941 -0.00539049
internal_weight=27184 15566 11618 5381 10717 10185 3981 6204 6261 2948 619 901 4762 3851 349 4456 4391 845 5603 1558 4045 1393 287 3613 1599 133 238 393 2661 589
internal_count=27184 15566 11618 5381 10717 10185 3981 6204 6261 2948 619 901 4762 3851 349 4456 4391 845 5603 1558 4045 1393 287 3613 1599 133 238 393 2661 589
is_linear=0
shrinkage=0.05


Tree=18
num_leaves=31
num_cat=0
split_feature=15 14 14 15 15 15 15 17 3 14 14 14 14 14 1 15 15 14 14 17 17 15 14 14 5 15 15 14 15 15
split_gain=1438.42 366.08 150.294 54.4239 53.6051 40.219 57.8544 31.9278 26.3126 22.3329 20.66 19.5754 17.905 17.4834 16.7217 16.4838 15.0525 26.8676 16.9246 14.8036 35.0827 14.9079 25.2594 18.4956 15.3748 14.6427 35.5184 14.5334 12.733 24.9677
threshold=6.473677635192872 28.32625770568848 40.362674713134773 3.2684181928634648 17.899422645568851 8.3422236442565936 11.767860889434816 0.190058209002018 1.0000000180025095e-35 80.018222808837905 17.062662124633793 36.299297332763679 26.413773536682132 271.07151794433599 1.0000000180025095e-35 29.590348243713382 1.0000000180025095e-35 250.38629150390628 51.028005599975593 0.61390966176986705 0.61550265550613414 7.3843076229095468 31.121397972106937 32.395042419433601 0.99135548187673495 5.180363893508912 5.1844129562377939 92.169013977050795 8.5791287422180194 8.5709252357482928
decision_type=2 2 2 2 2 2 2 2 2 2 2 2 2 2 2 2 2 2 2 2 2 2 2 2 2 2 2 2 2 2
left_child=2 4 11 16 12 7 9 -3 14 28 15 -1 -2 25 -5 -6 17 -4 -18 21 -21 23 24 -9 -23 -10 -27 -11 29 -7
right_child=1 5 3 8 10 6 -8 19 13 27 -12 -13 -14 -15 -16 -17 18 -19 -20 20 -22 22 -24 -25 -26 26 -28 -29 -30 -31
leaf_value=-0.055034857921528159 -0.22033399167614329 -0.058244473452384683 -0.11705106603861602 0.079551435690279615 -0.5080006678219352 -0.065938120725146737 0.050929727519401169 -0.017530383736114707 0.099292504580010654 0.0055699345565983554 0.034107699119042149 0.020095729423610466 -0.062195661221432989 -0.0048100643507414283 0.10174232403892383 0.054957827830737216 -0.037176618769661475 0.34509105323257289 0.27769795618155052 0.00060274631066228326 0.004188046518110511 -0.0029816980539848718 -0.037545348445640059 0.020514017555013454 0.002992653531872236 -0.078062890332855878 0.064352764666636197 -0.027555292725477722 -0.093860563494524749 0.020346718375495954
leaf_weight=486 3271 537 133 473 243 436 1033 330 2483 107 270 415 1491 256 1043 106 65 712 3546 223 1467 445 1085 1465 652 74 1932 180 2072 153
leaf_count=486 3271 537 133 473 243 436 1033 330 2483 107 270 415 1491 256 1043 106 65 712 3546 223 1467 445 1085 1465 652 74 1932 180 2072 153
internal_value=0.00199934 -0.00793717 0.0153124 0.0169614 -0.0184863 -0.00236377 -0.00628611 0.000153127 0.0139554 -0.00985414 -0.00464459 -0.00430078 -0.0202856 0.0121233 0.01969 -0.0126791 0.0211849 0.0151775 0.0225907 0.00125728 0.00517751 -0.000408599 -0.00318515 0.00296657 0.002165 0.0128481 0.00967099 0.00339721 -0.0112834 -0.00479626
internal_weight=27184 15566 11618 10717 5381 10185 3981 6204 6261 2948 619 901 4762 4745 1516 349 4456 845 3611 5667 1690 3977 2182 1795 1097 4489 2006 287 2661 589
internal_count=27184 15566 11618 10717 5381 10185 3981 6204 6261 2948 619 901 4762 4745 1516 349 4456 845 3611 5667 1690 3977 2182 1795 1097 4489 2006 287 2661 589
is_linear=0
shrinkage=0.05


Tree=19
num_leaves=31
num_cat=0
split_feature=15 14 14 15 15 15 15 17 14 2 14 14 14 15 15 15 14 15 15 17 17 15 14 2 14 14 16 17 15 14
split_gain=1359.1 349.048 135.613 49.4391 46.9282 37.0871 51.9413 33.3864 29.4144 29.3306 23.6409 22.811 19.6153 18.6507 31.5235 18.0468 23.6422 16.7946 15.9147 14.6331 34.7944 14.5357 21.1324 17.461 13.6354 12.3809 11.6157 12.8389 11.0867 10.9951
threshold=6.4339046478271493 28.32625770568848 44.772325515747077 17.899422645568851 3.2684181928634648 8.3422236442565936 13.050963401794435 0.190058209002018 36.455842971801765 1.0000000180025095e-35 25.010663986206058 80.018222808837905 17.062662124633793 5.1342368125915536 5.1844129562377939 1.0000000180025095e-35 146.06536865234378 5.180363893508912 29.590348243713382 0.61390966176986705 0.61550265550613414 7.3843076229095468 31.121397972106937 1.0000000180025095e-35 93.869052886962905 31.107695579528812 0.35072208940982824 0.24801310896873477 7.3843076229095468 90.340961456298842
decision_type=2 2 2 2 2 2 2 2 2 2 2 2 2 2 2 2 2 2 2 2 2 2 2 2 2 2 2 2 2 2
left_child=2 3 8 10 15 7 11 -3 -1 13 -2 -7 18 -6 17 16 -4 -15 -5 21 -21 23 25 -9 -13 -23 27 -11 -22 -17
right_child=1 5 4 12 9 6 -8 19 -10 26 -12 24 -14 14 -16 29 -18 -19 -20 20 28 22 -24 -25 -26 -27 -28 -29 -30 -31
leaf_value=-0.052229204480043027 -0.27323571525150392 -0.054405104470529153 -1.3194155001450363 -0.48260063443083862 0.092019519839242392 -0.07486623377893907 0.06610079266811085 -0.0033750057433225679 0.03521198251400879 0.049803957335583605 -0.077027743996741907 0.0052914378287685082 0.032402314163090119 0.053749737655807199 0.058444252528553522 0.13589295029764586 0.32013252768051148 -0.073606264037510624 0.052209936439200536 0.0005726089951291869 0.021456438904297315 -8.573364453887678e-05 -0.035668081023358056 0.019488316677262675 -0.025912481730491876 0.0036539642028515121 0.098699719576281819 0.097542554082653873 -0.0026322255384798156 0.27881343829222766
leaf_weight=487 2343 547 50 243 2090 2897 767 1202 870 321 2421 116 270 56 1249 445 795 113 106 223 711 904 1085 661 201 193 569 1317 781 3151
leaf_count=487 2343 547 50 243 2090 2897 767 1202 870 321 2421 116 270 56 1249 445 795 113 106 223 711 904 1085 661 201 193 569 1317 781 3151
internal_value=0.00204164 -0.007541 0.0150851 -0.0178571 0.0170687 -0.00214327 -0.00592188 0.000241795 0.000239499 0.0140726 -0.0195844 -0.00871189 -0.00456381 0.0112315 0.00680536 0.0209243 0.0143491 -0.0134615 -0.0123926 0.00136285 0.00523324 -0.000278121 -0.00304766 0.00296565 0.00402208 0.00184594 0.0185886 0.0207265 0.00247989 0.0224694
internal_weight=27184 15671 11513 5383 10156 10288 3981 6307 1357 5715 4764 3214 619 3508 1418 4441 845 169 349 5760 1715 4045 2182 1863 317 1097 2207 1638 1492 3596
internal_count=27184 15671 11513 5383 10156 10288 3981 6307 1357 5715 4764 3214 619 3508 1418 4441 845 169 349 5760 1715 4045 2182 1863 317 1097 2207 1638 1492 3596
is_linear=0
shrinkage=0.05


Tree=20
num_leaves=31
num_cat=0
split_feature=15 14 14 15 15 3 15 15 16 14 14 14 15 14 14 2 14 15 15 15 15 14 16 16 4 2 15 15 15 15
split_gain=1274.98 328.483 122.623 51.6073 45.8048 35.6464 33.0355 46.5788 30.6892 27.4267 26.5908 21.5013 19.8548 24.301 18.994 17.7205 17.0005 15.3555 13.5679 17.2731 17.166 13.174 12.8364 18.2473 15.1961 14.4781 22.1978 12.7983 27.8895 12.409
threshold=6.4339046478271493 28.32625770568848 44.772325515747077 3.2684181928634648 17.899422645568851 1.0000000180025095e-35 8.3422236442565936 13.228873252868654 0.1862263157963753 25.010663986206058 36.299297332763679 80.018222808837905 1.0000000180025095e-35 271.07151794433599 17.062662124633793 1.0000000180025095e-35 271.07151794433599 29.590348243713382 5.1342368125915536 5.1844129562377939 5.180363893508912 93.869052886962905 0.54814478754997265 0.5718035399913789 1.0000000180025095e-35 1.0000000180025095e-35 7.9292855262756357 8.5791287422180194 8.5709252357482928 8.7612342834472674
decision_type=2 2 2 2 2 2 2 2 2 2 2 2 2 2 2 2 2 2 2 2 2 2 2 2 2 2 2 2 2 2
left_child=2 4 10 12 9 15 8 11 -3 -2 -1 27 13 -4 17 -5 18 -6 -7 20 -20 -13 25 24 -24 -10 -27 28 -8 -11
right_child=1 6 3 5 14 16 7 -9 22 29 -12 21 -14 -15 -16 -17 -18 -19 19 -21 -22 -23 23 -25 -26 26 -28 -29 -30 -31
leaf_value=-0.052548773427709611 -0.25957392948892882 -0.041937440755425118 -0.11648372596117476 0.069364684993964518 -0.45847060270929668 0.093063848548292333 -0.05889790299994218 0.067823277818894218 -0.0045337163304228767 -0.027714779923882205 0.030732418178432575 0.005026865937330172 0.24843710661167046 0.31288977487230485 0.030782198454935461 0.091778080132845122 -0.0065078699532520549 0.04959943961724065 0.062141897049898989 0.063979664444053161 -0.07047943261433752 -0.024616857643967194 0.00054397854537278076 0.0038968358433926656 -6.1131940401537574e-05 0.012208992737590485 -0.018258730210238383 -0.083352668843181377 0.023072694145668395 -0.088310987021908718
leaf_weight=465 2343 611 138 436 243 2291 436 732 2707 749 892 116 3596 707 270 1014 254 106 69 1578 73 204 276 1185 118 1094 316 2340 153 1672
leaf_count=465 2343 611 138 436 243 2291 436 732 2707 749 892 116 3596 707 270 1014 254 106 69 1578 73 204 276 1185 118 1094 316 2340 153 1672
internal_value=0.0020913 -0.00719003 0.0147247 0.0166109 -0.0171977 0.0134689 -0.00195373 -0.00551997 0.000297289 -0.0188602 0.000607959 -0.0080871 0.0206541 0.0137574 -0.00440226 0.0202414 0.0111665 -0.012106 0.0119609 0.00860465 -0.00809859 0.00421875 0.00143961 0.00527232 0.0145939 -3.03619e-05 0.00407801 -0.00943155 -0.0028438 -0.015128
internal_weight=27184 15671 11513 10156 5383 5715 10288 3981 6307 4764 1357 3249 4441 845 619 1450 4265 349 4011 1720 142 320 5696 1579 394 4117 1410 2929 589 2421
internal_count=27184 15671 11513 10156 5383 5715 10288 3981 6307 4764 1357 3249 4441 845 619 1450 4265 349 4011 1720 142 320 5696 1579 394 4117 1410 2929 589 2421
is_linear=0
shrinkage=0.05


Tree=21
num_leaves=31
num_cat=0
split_feature=15 14 14 15 15 3 15 15 14 14 17 2 15 14 15 14 14 15 15 15 5 14 17 14 17 14 15 15 15 17
split_gain=1215.48 306.006 118.565 60.083 43.0039 37.3197 29.0435 44.1972 28.6384 27.8653 27.1349 20.8621 18.679 23.911 18.0178 23.5394 17.7379 16.6839 25.6825 22.2765 14.9414 14.9165 15.8787 14.5334 14.1811 13.5875 12.7949 21.4088 11.6925 11.6061
threshold=6.5764036178588876 28.32625770568848 43.90275955200196 3.2684181928634648 21.215250968933109 1.0000000180025095e-35 8.3422236442565936 11.767860889434816 25.817542076110843 31.378952026367191 0.15000005811452868 1.0000000180025095e-35 14.174643039703371 19.876013755798343 1.0000000180025095e-35 271.07151794433599 80.018222808837905 5.1342368125915536 5.1844129562377939 5.180363893508912 0.88192238600939965 90.340961456298842 1.0000000180025095e-35 92.169013977050795 0.56514057517051708 13.94176244735718 8.5791287422180194 8.5709252357482928 34.736417770385749 0.61390966176986705
decision_type=2 2 2 2 2 2 2 2 2 2 2 2 2 2 2 2 2 2 2 2 2 2 2 2 2 2 2 2 2 2
left_child=2 4 9 14 8 11 10 16 12 -1 -3 -5 -2 -14 15 -4 26 -7 19 -19 -12 22 -16 -18 -11 28 27 -8 -6 -22
right_child=1 6 3 5 25 17 7 -9 -10 24 20 -13 13 -15 21 -17 23 18 -20 -21 29 -23 -24 -25 -26 -27 -28 -29 -30 -31
leaf_value=-0.19714083802271745 -0.20959013245007158 -0.055119274793939965 -0.11065953966311604 0.06624750110195414 -0.48213886761859598 0.086138899436003599 -0.055953007849944926 0.04365446698150386 -0.055097198016156673 0.00015811749824266031 -0.021813317423039005 0.08718917612620275 -0.40596906699923924 -0.032281724197281751 0.1938692519269079 0.29724528612868967 0.0047755226404635927 0.066417286272407602 0.056448276959022436 -0.066984622081163181 0.00043256814157075499 0.25245091104703299 0.025363648178451471 -0.023651061120480502 0.086496602888766816 0.06789952590439334 -0.081256590188692357 0.021919059438384993 0.085076149118071598 0.0016395375875113416
leaf_weight=161 2367 379 138 465 120 2480 436 1033 1919 976 958 1022 412 300 229 707 107 77 1846 110 3254 3151 219 180 259 203 2072 153 58 1393
leaf_count=161 2367 379 138 465 120 2480 436 1033 1919 976 958 1022 412 300 229 707 107 77 1846 110 3254 3151 219 180 259 203 2072 153 58 1393
internal_value=0.00211521 -0.00717218 0.0141512 0.0159805 -0.0167829 0.0127167 -0.00198445 -0.0052939 -0.0180172 0.000465616 0.000217246 0.0195864 -0.0210052 -0.0139045 0.020387 0.0138166 -0.00841248 0.0104531 0.00709543 -0.0105615 0.00109277 0.0219297 0.0133929 0.00339721 0.00301619 -0.000590551 -0.00968621 -0.00318336 -0.0106742 0.0022649
internal_weight=27184 15344 11840 10444 5379 6000 9965 3981 4998 1396 5984 1487 3079 712 4444 845 2948 4513 2033 187 5605 3599 448 287 1235 381 2661 589 178 4647
internal_count=27184 15344 11840 10444 5379 6000 9965 3981 4998 1396 5984 1487 3079 712 4444 845 2948 4513 2033 187 5605 3599 448 287 1235 381 2661 589 178 4647
is_linear=0
shrinkage=0.05


Tree=22
num_leaves=31
num_cat=0
split_feature=15 14 14 15 15 3 15 15 17 14 17 14 14 15 14 14 18 14 15 14 14 15 18 17 15 14 14 14 15 8
split_gain=1146.73 303.608 107.454 60.6402 42.6803 36.1546 34.8901 44.8991 30.9534 24.9024 18.9309 18.8014 17.4311 17.1677 22.8671 18.7572 17.1857 17.1105 15.9036 14.8448 14.5334 14.358 12.7465 12.4371 11.8551 11.8443 26.6814 20.1461 28.0854 13.6508
threshold=6.4339046478271493 27.862676620483402 40.362674713134773 3.2684181928634648 17.899422645568851 1.0000000180025095e-35 8.3422236442565936 11.767860889434816 0.2735604196786881 24.636895179748539 0.24801310896873477 31.121397972106937 15.42023801803589 1.0000000180025095e-35 250.38629150390628 90.340961456298842 -0.10424544662237166 80.018222808837905 8.7150378227233904 271.07151794433599 92.169013977050795 26.218253135681156 0.29999969899654394 0.56000021100044262 5.6071248054504403 43.137794494628913 33.557081222534187 36.455842971801765 7.1130390167236337 1.0000000180025095e-35
decision_type=2 2 2 2 2 2 2 2 2 2 2 2 2 2 2 2 2 2 2 2 2 2 2 2 2 2 2 2 2 2
left_child=2 4 11 13 9 10 8 17 -3 -2 -5 -1 21 14 -4 16 -15 18 -8 24 -19 -6 -12 -13 -7 26 -10 -28 -29 -27
right_child=1 6 3 5 12 19 7 -9 25 -11 22 23 -14 15 -16 -17 -18 20 -20 -21 -22 -23 -24 -25 -26 29 27 28 -30 -31
leaf_value=-0.21426008187071519 -0.24675343898409852 -0.032833702859581849 -0.11584797583949645 0.020988923890277535 -0.46874052035253339 0.076867049263666234 -0.01700306607897293 0.041143357414565075 -0.0006464722185459238 -0.073143471876344887 0.082829717319892637 -0.0060842612624547598 0.023838760746342304 0.18470762572152852 0.2813231211368688 0.23982836549468126 0.017715437084403974 0.0045367465084403596 -0.076591056217529291 -0.0097059891921590594 -0.022468508064456397 -0.0037168945785087007 0.080479768127849738 0.085572635873782943 0.041208378394473402 0.0095031821796712993 0.0067702056617889644 0.041100110356152797 -0.036731037638114826 -0.037175988460599288
leaf_weight=132 2135 992 133 180 174 3175 874 1058 2224 2207 978 590 313 218 712 3151 242 107 2101 254 180 125 342 152 1254 959 974 411 337 500
leaf_count=132 2135 992 133 180 174 3175 874 1058 2224 2207 978 590 313 218 712 3151 242 107 2101 254 180 125 342 152 1254 959 974 411 337 500
internal_value=0.00218327 -0.00661891 0.0141644 0.0155489 -0.0168551 0.0123443 -0.00188719 -0.0053588 0.000457246 -0.0185974 0.0191 -0.00268879 -0.00449346 0.0199955 0.0135799 0.0214968 0.0120652 -0.0082618 -0.00938655 0.0101804 0.00339721 -0.0131271 0.0211742 0.000404313 0.0108546 0.00194727 0.0033705 0.00804297 0.00187166 -0.00190199
internal_weight=27184 15671 11513 10639 4954 6183 10717 4320 6397 4342 1500 874 612 4456 845 3611 460 3262 2975 4683 287 299 1320 742 4429 5405 3946 1722 748 1459
internal_count=27184 15671 11513 10639 4954 6183 10717 4320 6397 4342 1500 874 612 4456 845 3611 460 3262 2975 4683 287 299 1320 742 4429 5405 3946 1722 748 1459
is_linear=0
shrinkage=0.05


Tree=23
num_leaves=31
num_cat=0
split_feature=14 14 14 1 3 14 14 18 17 14 4 14 18 14 14 14 3 17 9 9 16 16 11 12 14 14 11 1 14 18
split_gain=1004.13 173.09 155.88 22.0578 70.7298 23.2168 20.0834 20.4748 16.4636 16.1678 19.0314 15.0278 13.6058 13.2106 10.9137 29.5057 10.3493 9.74385 13.199 8.01804 7.2972 7.43768 5.92066 5.54155 5.37755 24.5841 7.61452 5.78098 5.27493 5.17923
threshold=34.473678588867195 67.243526458740249 27.862676620483402 1.0000000180025095e-35 1.0000000180025095e-35 35.810096740722663 175.87730407714847 0.29999969899654394 0.190058209002018 34.854627609252937 1.0000000180025095e-35 25.191899299621586 -0.36614580452442164 56.003875732421882 30.971629142761234 31.121397972106937 1.0000000180025095e-35 0.40037457644939428 -0.87709776376364113 1.4244461954335212 0.37277899682521826 0.24154471606016162 -0.33195257967191294 6.0602900572549077 32.339883804321296 32.395042419433601 -0.20600181250964431 1.0000000180025095e-35 46.326545715332038 0.31977282464504247
decision_type=2 2 2 2 2 2 2 2 2 2 2 2 2 2 2 2 2 2 2 2 2 2 2 2 2 2 2 2 2 2
left_child=2 3 11 13 5 -5 7 -3 -4 10 -6 -1 -11 16 23 -16 28 18 -9 -14 21 -7 -18 29 -17 -26 27 -27 -2 -10
right_child=1 6 8 4 9 20 -8 17 14 12 -12 -13 19 -15 15 24 22 -19 -20 -21 -22 -23 -24 -25 25 26 -28 -29 -30 -31
leaf_value=-0.20844300744661093 -0.098308045398052546 0.12879495804970667 -0.075526920638468206 -0.002382603463159683 9.6292455639357399e-05 0.068499198854584262 0.2332693780360714 -0.19525954475036578 -0.0321717220353996 0.13326285602175272 -0.007720246773248363 -0.067000560066362888 0.016629631267347379 0.030397541150636975 0.0027512763766520012 -0.028989125673790462 0.036262442650292215 0.076359398046930954 0.075412894123741844 -0.012130145858045083 0.046332499359840185 0.071227446541788461 -0.025239392234338711 0.0057586207276829173 0.030993840741713543 -0.036639535523376669 -0.004201141163542488 -0.029339998077913168 -0.026567538222731814 -0.012944022518277622
leaf_weight=3042 326 1532 435 76 259 54 3828 76 572 144 94 1960 4597 418 518 782 214 3103 188 521 90 782 325 92 122 80 653 195 249 1857
leaf_count=3042 326 1532 435 76 259 54 3828 76 572 144 94 1960 4597 418 518 782 214 3103 188 521 90 782 325 92 122 80 653 195 249 1857
internal_value=0.002255 0.00976535 -0.0100407 0.0045251 0.00577679 0.018014 0.0146585 0.0125383 -0.00407086 0.00359305 0.0139518 -0.0163735 0.00289814 -0.000881201 -0.00323855 -0.000787234 -0.00372531 0.0103579 0.00113636 0.00247167 0.0201944 0.0216507 0.00125232 -0.0055236 -0.00376638 -0.00142857 -0.00420259 -0.0111818 -0.0083913 -0.00597983
internal_weight=27184 16876 10308 8149 6617 1002 8727 4899 5306 5615 353 5002 5262 1532 4871 2350 1114 3367 264 5118 926 836 539 2521 1832 1050 928 275 575 2429
internal_count=27184 16876 10308 8149 6617 1002 8727 4899 5306 5615 353 5002 5262 1532 4871 2350 1114 3367 264 5118 926 836 539 2521 1832 1050 928 275 575 2429
is_linear=0
shrinkage=0.05


Tree=24
num_leaves=31
num_cat=0
split_feature=15 14 14 15 15 14 2 15 15 17 14 14 14 14 14 14 15 5 15 15 14 14 5 17 15 18 15 15 14 2
split_gain=1031.38 248.172 109.759 64.4063 42.783 36.2239 33.481 30.0555 39.0899 24.3672 23.4925 22.9741 17.7032 17.4247 24.9273 22.286 25.6183 17.2401 16.5524 16.5125 22.3744 16.5384 15.9707 14.5065 14.133 13.9642 12.7845 16.379 12.7412 12.6294
threshold=6.5764036178588876 27.726311683654789 43.90275955200196 3.2684181928634648 15.833980083465578 24.636895179748539 1.0000000180025095e-35 8.3422236442565936 13.228873252868654 0.2735604196786881 31.121397972106937 17.784614562988285 250.38629150390628 43.137794494628913 33.557081222534187 36.455842971801765 7.0839202404022226 0.88224646349222269 26.218253135681156 1.0000000180025095e-35 271.07151794433599 103.46464157104494 0.97920126196453106 0.42050056159496313 8.7612342834472674 0.22318901866674426 5.1342368125915536 5.1844129562377939 32.007366180419929 1.0000000180025095e-35
decision_type=2 2 2 2 2 2 2 2 2 2 2 2 2 2 2 2 2 2 2 2 2 2 2 2 2 2 2 2 2 2
left_child=2 4 10 19 5 -2 12 9 -9 -3 -1 18 26 14 28 -16 -17 -8 -6 20 -4 -21 25 -12 -7 -19 -5 -28 -11 -15
right_child=1 7 3 6 11 24 17 8 -10 13 23 -13 -14 29 15 16 -18 22 -20 21 -22 -23 -24 -25 -26 -27 27 -29 -30 -31
leaf_value=-0.18096654254291825 -0.22492055246858131 -0.03193943483110058 -0.11099763278978898 0.073393651262520621 -0.38601034577794419 -0.033120576220168375 -0.0091137636341205308 -0.051669033127985035 0.059760296411505112 0.001036168384356273 -0.0049763619111939054 0.02317529545789139 -0.029912566932360819 -0.033410142711241167 0.0067853417540927555 0.038235026980538579 -0.0355417466177455 0.030433989716117084 0.017519528490555027 0.10101201514895664 0.25665339686360794 0.22524873119392411 0.082338087193090104 0.052789289948378837 -0.079192643844536725 0.079821372959483661 -0.056647819931956889 0.044956554117706209 -0.031129068481660128 0.024356344858888691
leaf_weight=146 1878 934 138 1947 360 527 67 3655 753 1866 751 404 251 957 957 349 346 190 142 546 707 3053 566 499 1528 1488 130 1361 356 332
leaf_count=146 1878 934 138 1947 360 527 67 3655 753 1866 751 404 251 957 957 349 346 190 142 546 707 3053 566 499 1528 1488 130 1361 356 332
internal_value=0.00222373 -0.00633147 0.0133108 0.0150709 -0.0157006 -0.017957 0.0116917 -0.00201571 -0.00516107 0.000258324 0.000143266 -0.00590508 0.00873543 0.00160275 0.00327827 0.00792978 0.00111511 0.0164106 -0.0130478 0.0196332 0.0133432 0.02111 0.0171569 0.00236 -0.0133698 0.0196067 0.00967132 0.00618712 -0.000180018 -0.00343289
internal_weight=27184 15344 11840 10444 4839 3933 6000 10505 4408 6097 1396 906 3689 5163 3874 1652 695 2311 502 4444 845 3599 2244 1250 2055 1678 3438 1491 2222 1289
internal_count=27184 15344 11840 10444 4839 3933 6000 10505 4408 6097 1396 906 3689 5163 3874 1652 695 2311 502 4444 845 3599 2244 1250 2055 1678 3438 1491 2222 1289
is_linear=0
shrinkage=0.05


Tree=25
num_leaves=31
num_cat=0
split_feature=15 14 14 15 15 2 14 15 15 14 14 5 14 14 18 18 14 15 14 14 18 18 15 18 14 14 15 14 15 14
split_gain=995.912 225.221 105.744 67.6353 39.6278 35.5282 28.9684 28.2932 30.1546 21.4816 20.767 16.7953 16.7928 19.7663 16.6855 23.8111 16.3025 17.497 16.2016 15.9146 15.2007 14.1753 14.0058 12.4667 12.4177 17.2837 12.1113 25.139 11.9736 18.113
threshold=6.5764036178588876 27.726311683654789 43.90275955200196 3.2684181928634648 19.316926002502445 1.0000000180025095e-35 24.423343658447269 7.8595774173736581 13.228873252868654 13.94176244735718 31.121397972106937 0.88224646349222269 80.018222808837905 86.86655426025392 0.22318901866674426 0.35075311362743383 103.46464157104494 1.0000000180025095e-35 250.38629150390628 271.07151794433599 1.0000000180025095e-35 0.17843607813119891 34.736417770385749 0.39358927309513098 43.137794494628913 30.971629142761234 8.8286709785461444 29.04420375823975 14.174643039703371 19.19615459442139
decision_type=2 2 2 2 2 2 2 2 2 2 2 2 2 2 2 2 2 2 2 2 2 2 2 2 2 2 2 2 2 2
left_child=2 4 10 16 6 18 28 21 12 22 -1 -7 26 -14 -13 -16 20 19 -5 -18 -4 -3 -6 -12 25 -23 27 -9 -2 -30
right_child=1 7 3 5 9 11 -8 8 -10 -11 23 14 13 -15 15 -17 17 -19 -20 -21 -22 24 -24 -25 -26 -27 -28 -29 29 -31
leaf_value=-0.17191821541577232 -0.21450807182721976 -0.027762022805524825 0.16322637882770402 0.055800168510256577 -0.39869127932129439 -0.0086580754524145931 -0.063038952830955175 0.0041341985883271096 0.05677228159092991 0.052966249144620114 -0.0026958069802962116 0.031156926925405948 0.0030753909370709212 -0.030160053547925971 0.076086476900447411 0.080439641744870727 -0.062123188633119497 0.21398629463422802 -0.028416938585742815 0.2438207270204277 0.031705557406117184 -0.017113845990612477 0.090554360338896356 0.049613148778320952 -0.012687154674210888 0.0051779061350107018 -0.082249834099020813 -0.015778320813325308 -0.36150692192505363 -0.024067491037182445
leaf_weight=146 1584 423 234 3438 166 67 2230 570 753 274 800 332 137 261 1292 620 121 3053 251 707 329 521 58 450 1083 2352 2137 2268 305 222
leaf_count=146 1584 423 234 3438 166 67 2230 570 753 274 800 332 137 261 1292 620 121 3053 251 707 329 521 58 450 1083 2352 2137 2268 305 222
internal_value=0.00206555 -0.00634124 0.0129603 0.0146879 -0.0152666 0.011225 -0.0167991 -0.00222989 -0.00442377 -0.00190763 3.58166e-05 0.0160861 -0.00573702 0.00414573 0.0168226 0.0186192 0.0193632 0.0205166 0.00817972 0.01407 0.0114121 0.000839233 -0.0133929 0.00212 0.00176946 0.00348938 -0.00652764 -0.00438689 -0.0209972 -0.0144687
internal_weight=27184 15344 11840 10444 4839 6000 4341 10505 6126 498 1396 2311 5373 398 2244 1912 4444 3881 3689 828 563 4379 224 1250 3956 2873 4975 2838 2111 527
internal_count=27184 15344 11840 10444 4839 6000 4341 10505 6126 498 1396 2311 5373 398 2244 1912 4444 3881 3689 828 563 4379 224 1250 3956 2873 4975 2838 2111 527
is_linear=0
shrinkage=0.05


Tree=26
num_leaves=31
num_cat=0
split_feature=15 14 15 14 3 15 14 4 14 15 15 18 14 15 14 14 14 14 15 15 15 18 14 15 15 15 15 14 2 15
split_gain=910.18 230.756 104.234 60.0064 41.8939 36.0516 34.9838 31.2705 29.5015 21.7293 33.5499 24.8681 21.1076 20.1728 22.3744 17.5705 17.1437 17.1121 16.1632 42.4059 14.0058 13.7935 13.4731 12.5865 13.9271 11.598 13.7668 26.8661 14.9605 10.6834
threshold=6.5764036178588876 27.726311683654789 2.9031265974044804 37.402458190917976 1.0000000180025095e-35 19.316926002502445 52.770328521728523 1.0000000180025095e-35 24.154388427734379 8.5791287422180194 11.767860889434816 0.55258303880691539 13.94176244735718 1.0000000180025095e-35 271.07151794433599 80.018222808837905 36.455842971801765 34.473678588867195 5.180363893508912 5.1844129562377939 34.736417770385749 0.16057772189378741 92.169013977050795 8.8286709785461444 14.174643039703371 8.5709252357482928 7.9292855262756357 31.121397972106937 1.0000000180025095e-35 7.366431951522828
decision_type=2 2 2 2 2 2 2 2 2 2 2 2 2 2 2 2 2 2 2 2 2 2 2 2 2 2 2 2 2 2
left_child=2 5 6 -4 7 8 -1 -5 -2 11 15 21 20 14 -8 -11 17 -13 -6 -20 -7 -3 -17 -10 -25 26 28 -28 -23 -18
right_child=1 9 3 4 18 12 13 -9 23 10 -12 16 -14 -15 -16 22 29 -19 19 -21 -22 25 -24 24 -26 -27 27 -29 -30 -31
leaf_value=-0.3306371533097629 -0.21821730202653669 -0.046812829666244227 -0.012918898035695037 0.040848816434895421 0.065501728155317102 -0.37875671535522976 -0.10234159171864335 0.06743386356567882 -0.030078219368871475 -0.059559636719333758 0.033036717173444433 0.0042048612728088136 0.050317936687389243 0.22032409514966816 0.23162969066940634 0.0029216213902174106 0.021164808584527253 0.00054112678581894611 -0.071254330771549954 0.040943366497020156 0.086026642321951396 -0.0030392129934892157 -0.028652050870529779 -0.075515454089881834 0.020313338203455624 0.030998331814419446 0.0030358762300732424 -0.058726752436650646 0.0092764880038089369 -0.028914355910841752
leaf_weight=75 2005 523 625 458 3204 166 138 1217 613 2433 1062 724 274 2940 707 104 334 318 111 2365 58 2125 152 1593 130 80 659 576 1068 347
leaf_count=75 2005 523 625 458 3204 166 138 1217 613 2433 1062 724 274 2940 707 104 334 318 111 2365 58 2125 152 1593 130 80 659 576 1068 347
internal_value=0.00232122 -0.00571559 0.0127365 0.00947368 0.0107376 -0.0147499 0.0194819 0.0176866 -0.0162117 -0.00155402 -0.00460544 0.000140657 -0.00200803 0.0201519 0.0133432 -0.00757717 0.00532501 0.00935701 0.00868838 0.00565428 -0.0133929 -0.00163486 0.00488281 -0.012393 -0.0145821 -0.000743123 -0.00108401 -0.0055668 0.000649859 -0.000844347
internal_weight=27184 15344 11840 7980 7355 4839 3860 1675 4341 10505 3751 6754 498 3785 845 2689 1723 1042 5680 2476 224 5031 256 2336 1723 4508 4428 1235 3193 681
internal_count=27184 15344 11840 7980 7355 4839 3860 1675 4341 10505 3751 6754 498 3785 845 2689 1723 1042 5680 2476 224 5031 256 2336 1723 4508 4428 1235 3193 681
is_linear=0
shrinkage=0.05


Tree=27
num_leaves=31
num_cat=0
split_feature=15 14 14 15 2 15 14 15 14 18 15 15 14 18 18 15 18 14 14 15 15 18 14 15 14 14 15 15 14 15
split_gain=854.783 235.988 99.294 68.4082 36.8486 31.531 34.4061 29.1963 24.376 19.8567 18.9143 18.4085 18.283 18.2751 20.8577 17.4499 17.263 25.7786 29.1433 16.0573 15.0608 15.0062 17.3085 14.7306 14.6019 16.056 14.286 13.9394 18.6606 13.2463
threshold=6.183216094970704 27.726311683654789 38.12895584106446 2.8021718263626103 1.0000000180025095e-35 15.833980083465578 23.016845703125004 7.3843076229095468 18.609786987304691 0.2321923449635506 15.165891647338869 9.1505951881408709 127.79519271850587 0.23603642731904986 0.2871928364038468 1.0000000180025095e-35 0.55810558795928966 34.854627609252937 34.473678588867195 8.8286709785461444 11.475431442260744 0.094824541360139861 68.175415039062514 26.218253135681156 32.58802795410157 43.137794494628913 9.1322231292724627 4.6543879508972177 122.05714035034181 14.174643039703371
decision_type=2 2 2 2 2 2 2 2 2 2 2 2 2 2 2 2 2 2 2 2 2 2 2 2 2 2 2 2 2 2
left_child=2 5 -1 12 27 6 -2 9 23 -3 11 16 21 -6 -15 -14 26 18 -18 -8 -13 -4 -23 -7 -11 -26 -9 -5 -29 -21
right_child=1 7 3 4 13 8 19 10 -10 24 -12 20 15 14 -16 -17 17 -19 -20 29 -22 22 -24 -25 25 -27 -28 28 -30 -31
leaf_value=-0.064132517168035016 -0.22843297549350369 -0.016267770298389196 0.17256193689508273 0.064043942613709604 0.032369098683122037 -0.307961188042356 -0.030653545342648414 -0.010574926102306216 0.033945710329468429 -0.0087117185839947105 0.090061633585370879 -0.089692360898303042 0.21204006068543749 0.082268442935702527 0.072281707769039014 0.23912805881649499 0.0030603423947983543 -0.04694239863172172 0.00051407044652798108 -0.083580836451559115 -0.0086506997906715451 -0.30122678801132569 0.074269681147696082 0.021660834554633548 0.025068050649475638 0.0085686789469299647 0.0027755403207066821 0.042132738163676825 -0.047775485147590405 0.031268775817985171
leaf_weight=455 1184 596 207 2027 525 398 663 3772 360 462 480 1499 808 1130 915 2342 736 448 219 2008 652 62 323 148 1259 1247 93 1718 359 89
leaf_count=455 1184 596 207 2027 525 398 663 3772 360 462 480 1499 808 1130 915 2342 736 448 219 2008 652 62 323 148 1259 1247 93 1718 359 89
internal_value=0.00227707 -0.00496077 0.0131382 0.0141369 0.0111028 -0.0142062 -0.0161384 -0.00104903 -0.0057947 0.00270763 -0.00274402 -0.00336636 0.0195484 0.0157977 0.017934 0.0210635 -0.00177487 0.00297577 0.0076178 -0.0130797 -0.00726406 0.0114865 0.00564935 -0.0124542 0.00438005 0.00588587 -0.00349935 0.00816277 0.00528406 -0.0152241
internal_weight=27184 16313 10871 10416 6674 4850 3944 11463 906 3564 7899 7419 3742 2570 2045 3150 5268 1403 955 2760 2151 592 385 546 2968 2506 3865 4104 2077 2097
internal_count=27184 16313 10871 10416 6674 4850 3944 11463 906 3564 7899 7419 3742 2570 2045 3150 5268 1403 955 2760 2151 592 385 546 2968 2506 3865 4104 2077 2097
is_linear=0
shrinkage=0.05


Tree=28
num_leaves=31
num_cat=0
split_feature=15 15 15 15 3 17 2 18 15 5 11 15 15 17 17 2 5 5 17 4 18 15 7 15 18 17 18 11 2 11
split_gain=814.724 168.405 88.9774 50.5016 48.3953 27.5946 26.0205 22.1399 21.8534 19.7126 18.4363 17.2782 16.2881 16.1007 46.7353 14.4549 11.6988 13.5724 10.612 10.0251 8.46975 8.44032 8.04983 8.02471 7.9759 6.89512 6.84031 7.53289 7.39151 6.78467
threshold=6.183216094970704 8.7612342834472674 2.8021718263626103 15.165891647338869 1.0000000180025095e-35 0.190058209002018 1.0000000180025095e-35 0.7447701394557954 9.2829504013061541 0.88224646349222269 -0.76844852587589918 7.3843076229095468 1.0000000180025095e-35 0.61549267172813427 0.61550265550613414 1.0000000180025095e-35 0.88192238600939965 0.98034622522132275 0.41428568959236151 1.0000000180025095e-35 0.23931629955768588 12.03349018096924 3.9981586158983733 4.6543879508972177 0.23931629955768588 0.62147900462150585 0.22318901866674426 0.63650015128822435 1.0000000180025095e-35 1.275647449361845
decision_type=2 2 2 2 2 2 2 2 2 2 2 2 2 2 2 2 2 2 2 2 2 2 2 2 2 2 2 2 2 2
left_child=2 5 12 8 6 -2 -4 -5 10 18 19 16 -1 29 -15 22 -7 20 -6 -3 -18 -17 -10 -11 -8 -19 27 -25 -28 -13
right_child=1 3 4 7 9 11 24 -9 15 23 -12 13 -14 14 -16 21 17 25 -20 -21 -22 -23 -24 26 -26 -27 28 -29 -30 -31
leaf_value=0.19733744900336847 -0.041548004878404404 0.002636763304671419 0.046905899637227758 0.0078339765112838584 -0.011657073946154384 -0.012264500497303921 0.02979152877233773 -0.31195830543922443 -0.088428339575293793 0.068667622380587198 -0.046083575479351963 -0.0087844883955861871 0.19951803874901231 0.00048836692420159975 -0.00025902259899908132 -0.1256185244376507 -0.015101540815904181 0.0026675634987251232 0.04245711665468406 -0.065004658361307574 0.016617237283756837 -0.16619680324949648 -0.12808150646568725 -0.011479988796496698 0.064114579687179332 0.029452577685522743 0.033813942401626211 0.025179270724060565 0.077015641060798862 0.004416512181233046
leaf_weight=845 779 120 506 1236 650 648 51 243 2453 1766 1104 3158 2913 213 1215 1448 54 1168 880 70 715 553 296 257 1026 617 1176 168 633 223
leaf_count=845 779 120 506 1236 650 648 51 243 2453 1766 1104 3158 2913 213 1215 1448 54 1168 880 70 715 553 296 257 1026 617 1176 168 633 223
internal_value=0.00233225 -0.00473395 0.0129358 -0.0102253 0.00964783 -3.41297e-05 0.0173563 -0.00194388 -0.0122518 0.00744123 -0.0064915 0.000839471 0.0191591 -0.00105531 0.00339636 -0.0138211 0.0036852 0.00520752 0.00261438 0.00789474 0.0107607 -0.017054 -0.0114678 0.0092875 0.0217502 0.00281513 0.00729633 0.00158824 0.00863737 -0.00293552
internal_weight=27184 16313 10871 7523 7113 8790 1583 1479 6044 5530 1294 8011 3758 4809 1428 4750 3202 2554 1530 190 769 2001 2749 4000 1077 1785 2234 425 1809 3381
internal_count=27184 16313 10871 7523 7113 8790 1583 1479 6044 5530 1294 8011 3758 4809 1428 4750 3202 2554 1530 190 769 2001 2749 4000 1077 1785 2234 425 1809 3381
is_linear=0
shrinkage=0.05


Tree=29
num_leaves=31
num_cat=0
split_feature=15 14 14 15 15 14 5 5 15 14 15 15 14 14 17 15 4 14 14 14 14 14 17 14 18 18 15 5 15 15
split_gain=750.861 217 90.1442 68.1967 28.4563 32.7668 27.4618 27.3661 24.636 21.1076 18.8947 18.5383 20.8758 20.7355 18.4985 16.0912 16.9088 22.2945 22.0625 40.9056 21.983 15.4714 15.0109 14.9637 14.4046 24.2072 13.9347 13.2128 12.9314 16.6595
threshold=6.183216094970704 27.726311683654789 38.12895584106446 2.8021718263626103 19.316926002502445 23.448244094848636 0.88224646349222269 0.98081572043367038 7.7960352897644052 13.94176244735718 13.228873252868654 1.0000000180025095e-35 146.06536865234378 53.971523284912116 0.23902758955955508 9.1505951881408709 1.0000000180025095e-35 32.58802795410157 34.473678588867195 35.810096740722663 67.243526458740249 32.339883804321296 0.73526489734649669 260.00784301757818 0.23603642731904986 0.29109099507331854 29.590348243713382 0.95970119070739268 14.174643039703371 9.3745632171630877
decision_type=2 2 2 2 2 2 2 2 2 2 2 2 2 2 2 2 2 2 2 2 2 2 2 2 2 2 2 2 2 2
left_child=2 4 -1 11 5 -2 -5 24 14 26 15 12 -4 -13 -3 16 18 21 22 -20 -21 -18 -10 -9 -8 -26 -6 -16 29 -7
right_child=1 8 3 6 9 28 7 23 10 -11 -12 13 -14 -15 27 -17 17 -19 19 20 -22 -23 -24 -25 25 -27 -28 -29 -30 -31
leaf_value=-0.061531697267585277 -0.2041530032004733 -0.019171058005485266 -1.2494306657944436 0.027934585995250318 -0.38029491135810273 -0.033878035045555421 0.031608587602263864 0.057132394202013617 -0.012812256354169806 0.055391528890073975 0.052720469333745967 -0.10490717013789724 0.19259886482224289 0.19561850439734912 -0.01186883194697348 -0.070734577093391066 -0.0052347735403902368 -0.064821429332083014 0.001018398405433274 -0.071699111391557227 0.0025049251394378305 0.030416385948593219 0.014005078957437434 -0.036523739631388351 0.075142253473155493 0.062090645504330057 0.035004663529918288 0.0067639185811170684 0.037986854122874017 -0.090750612186949201
leaf_weight=455 1708 687 50 1449 135 1115 414 2870 760 274 753 60 795 2837 852 1878 1293 803 283 323 171 106 67 165 1068 708 89 3487 154 1375
leaf_count=455 1708 687 50 1449 135 1115 414 2870 760 274 753 60 795 2837 852 1878 1293 803 283 323 171 106 67 165 1068 708 89 3487 154 1375
internal_value=0.00231938 -0.00446423 0.0124989 0.0134505 -0.0133299 -0.0146255 0.010421 0.01211 -0.000713164 -0.00200803 -0.00276138 0.0188536 0.0123373 0.0207542 0.00191007 -0.00374736 -0.00187861 -0.00472298 0.00202618 0.00807593 -0.000607287 -0.000911365 -0.0036578 0.00903624 0.0163699 0.0183277 -0.0133929 0.00311708 -0.0111384 -0.012008
internal_weight=27184 16313 10871 10416 4850 4352 6674 5225 11463 498 6437 3742 845 2897 5026 5684 3806 2202 1604 777 494 1399 827 3035 2190 1776 224 4339 2644 2490
internal_count=27184 16313 10871 10416 4850 4352 6674 5225 11463 498 6437 3742 845 2897 5026 5684 3806 2202 1604 777 494 1399 827 3035 2190 1776 224 4339 2644 2490
is_linear=0
shrinkage=0.05


Tree=30
num_leaves=31
num_cat=0
split_feature=15 14 15 3 14 17 15 14 14 15 15 15 16 14 17 17 14 16 17 15 14 14 14 15 15 2 14 5 15 15
split_gain=704.379 208.105 83.6191 49.1907 35.9132 27.2183 25.8586 33.8549 22.3125 24.9736 22.2776 27.9412 23.1179 21.6136 19.8184 20.2025 16.008 15.5449 14.54 14.2379 22.4961 14.2128 13.8857 12.8828 15.3315 11.9376 20.2629 17.6848 11.626 22.9112
threshold=6.183216094970704 27.726311683654789 2.5236234664916997 1.0000000180025095e-35 37.745035171508796 0.24801310896873477 21.215250968933109 23.448244094848636 54.678161621093757 1.0000000180025095e-35 8.5791287422180194 11.767860889434816 0.54814478754997265 250.38629150390628 0.61550265550613414 0.60718297958374035 80.018222808837905 0.29802630841732031 0.190058209002018 14.48017740249634 17.784614562988285 92.169013977050795 12.423600673675539 14.174643039703371 9.3745632171630877 1.0000000180025095e-35 34.636051177978523 0.99184333367288013 5.1342368125915536 5.1844129562377939
decision_type=2 2 2 2 2 2 2 2 2 2 2 2 2 2 2 2 2 2 2 2 2 2 2 2 2 2 2 2 2 2
left_child=2 6 8 5 -5 -4 7 19 -1 13 12 16 18 -10 15 -14 -12 -7 -3 -2 -21 -18 -8 24 -9 -20 -27 -28 -6 -30
right_child=1 10 3 4 28 17 22 23 9 -11 11 -13 14 -15 -16 -17 21 -19 25 20 -22 -23 -24 -25 -26 26 27 -29 29 -31
leaf_value=-0.31348927265039706 -0.19194890238298115 -0.03642469181156454 0.0074646178762019849 -0.063886384949532624 0.054883626640469529 0.053907268280762824 -0.32636092429374647 -0.032184133293277739 -0.13260784852988294 0.2074148287183519 -0.049583111059263635 0.029123182869394172 -0.046223293183813047 0.18888948672499703 0.0051373166105781465 0.0004130286577197495 0.0023796788824657967 0.072904657743058363 -0.0034819934936987096 -0.32827772040455189 -0.014569308428388529 -0.012917175205536325 0.071376855191957841 0.031931101401472615 -0.086213081577601616 -0.0021102387784623033 0.015448179490513426 -0.024922522860027031 -0.056853678641435583 0.040564751210487061
leaf_weight=56 1245 700 223 379 3588 1021 142 1115 133 2435 2433 1062 63 712 1644 234 104 376 3387 298 270 152 235 170 1375 713 801 170 193 1755
leaf_count=56 1245 700 223 379 3588 1021 142 1115 133 2435 2433 1062 63 712 1644 234 104 376 3387 298 270 152 235 170 1375 713 801 170 193 1755
internal_value=0.00234513 -0.00422516 0.0122045 0.00928666 0.00717244 0.0170062 -0.0129072 -0.0139671 0.018795 0.0193293 -0.000551775 -0.00371234 0.000985477 0.0119231 0.00570582 0.0175926 -0.00642432 0.0195956 -0.000602149 -0.0192361 -0.0126761 0.00546875 -0.000331565 -0.0103759 -0.0112851 0.00033031 0.00377078 0.00847065 0.00819184 0.00508214
internal_weight=27184 16313 10871 7535 5915 1620 4850 4473 3336 3280 11463 3751 7712 845 1941 297 2689 1397 5771 1813 568 256 377 2660 2490 5071 1684 971 5536 1948
internal_count=27184 16313 10871 7535 5915 1620 4850 4473 3336 3280 11463 3751 7712 845 1941 297 2689 1397 5771 1813 568 256 377 2660 2490 5071 1684 971 5536 1948
is_linear=0
shrinkage=0.05


Tree=31
num_leaves=31
num_cat=0
split_feature=15 14 15 14 15 15 15 5 5 17 15 14 14 14 14 1 15 14 14 16 16 5 0 15 14 14 14 5 14 14
split_gain=665.144 191.829 87.6607 50.5253 35.5384 31.6356 35.9285 25.8732 26.2444 23.5235 23.1708 22.0881 20.2697 20.0948 17.5613 17.4983 15.538 14.5146 13.4786 12.6457 19.2809 12.313 12.0561 11.4611 31.1151 30.7676 21.1327 14.5133 12.5683 12.938
threshold=6.2754817008972177 26.168966293334964 2.3345237970352177 36.065473556518562 14.174643039703371 8.7612342834472674 11.767860889434816 0.88224646349222269 0.98081572043367038 0.2735604196786881 1.0000000180025095e-35 19.19615459442139 23.016845703125004 146.06536865234378 56.671361923217781 1.0000000180025095e-35 26.218253135681156 56.671361923217781 72.440216064453139 0.29802630841732031 0.23862275481224063 0.88192238600939965 1.0000000180025095e-35 7.3843076229095468 36.299297332763679 34.473678588867195 31.121397972106937 0.98081572043367038 32.395042419433601 43.137794494628913
decision_type=2 2 2 2 2 2 2 2 2 2 2 2 2 2 2 2 2 2 2 2 2 2 2 2 2 2 2 2 2 2
left_child=2 4 10 -4 12 9 14 18 15 -3 13 16 -2 -1 -7 -9 -6 -12 -5 20 -17 -11 -16 27 25 26 -25 -23 -29 -30
right_child=1 5 3 7 11 6 -8 8 -10 21 17 -13 -14 -15 22 19 -18 -19 -20 -21 -22 23 -24 24 -26 -27 -28 28 29 -31
leaf_value=-1.1803287400782274 -0.18946403754108518 -0.023856867733944222 -0.060692065702055945 -0.0030390720189144463 -0.26748134194886231 -0.056296355897403498 0.023064088800894569 0.044016957127682235 0.048338365668170451 -0.014176788391674933 -0.045917538920835103 0.018581441496702846 -0.073530622357941236 0.17359865072558345 0.0022606949383426667 0.027428884666177211 0.014098516719847964 0.20779123969222973 0.047340670570986988 0.062391099473537895 0.06909484708008283 0.012957331438314769 -0.012271316445259473 0.0031741144318861107 -0.049429033121439231 0.00074466451731431966 -0.024133265913552294 -0.012605034245869541 0.03992801832623414 -0.00015592187581638941
leaf_weight=50 1030 1342 359 768 510 2456 1184 420 3438 1193 62 422 1538 795 342 366 152 2214 959 561 1084 668 110 1719 868 389 615 276 645 649
leaf_count=50 1030 1342 359 768 510 2456 1184 420 3438 1193 62 422 1538 795 342 366 152 2214 959 561 1084 668 110 1719 868 389 615 276 645 649
internal_value=0.00228259 -0.00420288 0.0117145 0.00892835 -0.0142798 -0.00124839 -0.00485093 0.00979463 0.0113776 0.000514108 0.0188161 -0.00668819 -0.0174844 0.0117456 -0.00784044 0.0153538 -0.0123867 0.0214411 0.00441517 0.0172924 0.0197586 0.00167331 0.00121681 0.00262052 0.000870231 0.00349798 0.00132819 0.00542895 0.00280255 0.00486862
internal_weight=27184 16108 11076 7955 3652 12456 4092 7596 5869 8364 3121 1084 2568 845 2908 2431 662 2276 1727 2011 1450 7022 452 5829 3591 2723 2334 2238 1570 1294
internal_count=27184 16108 11076 7955 3652 12456 4092 7596 5869 8364 3121 1084 2568 845 2908 2431 662 2276 1727 2011 1450 7022 452 5829 3591 2723 2334 2238 1570 1294
is_linear=0
shrinkage=0.05


Tree=32
num_leaves=31
num_cat=0
split_feature=15 14 15 3 15 2 14 15 14 14 15 14 17 15 14 15 14 14 9 15 15 14 16 14 15 14 14 14 14 15
split_gain=613.535 183.292 77.0501 47.8642 37.8396 32.1386 30.9607 29.5694 31.8613 26.192 24.2015 23.3778 22.3645 20.7674 20.1668 19.6065 16.369 13.1918 12.7313 12.0209 39.2938 11.8908 11.4298 17.2709 11.3759 28.8386 30.2246 15.0428 13.3168 15.3783
threshold=6.183216094970704 26.168966293334964 2.3345237970352177 1.0000000180025095e-35 15.464952468872072 1.0000000180025095e-35 35.550239562988288 8.7612342834472674 52.770328521728523 22.484337806701664 1.0000000180025095e-35 15.42023801803589 0.2735604196786881 13.050963401794435 250.38629150390628 26.218253135681156 146.06536865234378 42.32097244262696 -2.055555488192002 5.180363893508912 5.1844129562377939 179.30958557128909 -0.10395482182502745 84.967292785644545 7.3843076229095468 36.299297332763679 34.473678588867195 32.58802795410157 31.121397972106937 8.5709252357482928
decision_type=2 2 2 2 2 2 2 2 2 2 2 2 2 2 2 2 2 2 2 2 2 2 2 2 2 2 2 2 2 2
left_child=2 4 10 5 9 -4 -5 12 13 -2 14 15 -3 18 -1 -6 22 -7 -9 -8 -21 24 -12 -24 27 26 28 -14 -26 -30
right_child=1 7 3 6 11 17 19 8 -10 -11 16 -13 21 -15 -16 -17 -18 -19 -20 20 -22 -23 23 -25 25 -27 -28 -29 29 -31
leaf_value=-0.13465738863966764 -0.20610621112046187 -0.021837608720120728 0.042509948746027607 -0.097904563726008753 -0.35503696973267385 -0.0012146430713276147 0.049703337313027521 -0.095087165713818866 0.0022283342096063308 -0.071687927801701259 0.17670448955818241 0.0092080285285636165 -0.008379682464629213 0.016688532139886903 0.17076507985246822 0.0095742206140801769 0.21623128898251454 0.052836007461071692 -0.044523075754685774 -0.069424391157111742 0.028935042170929039 -0.1177221345889084 -0.21642394890560299 0.061144255642999391 0.0024520932609821246 -0.047631783689375595 0.00045025783989238732 0.018235818838740061 -0.024004634234526281 0.02017464597769756
